<?xml version="1.0"?>
<opencv_storage>
<my_svm type_id="opencv-ml-svm">
  <svm_type>C_SVC</svm_type>
  <kernel><type>RBF</type>
    <gamma>5.0625000000000009e-001</gamma></kernel>
  <C>1.2500000000000000e+001</C>
  <term_criteria><epsilon>1.1920928955078125e-007</epsilon>
    <iterations>100</iterations></term_criteria>
  <var_all>12</var_all>
  <var_count>12</var_count>
  <class_count>2</class_count>
  <class_labels type_id="opencv-matrix">
    <rows>1</rows>
    <cols>2</cols>
    <dt>i</dt>
    <data>
      -1 1</data></class_labels>
  <sv_total>10</sv_total>
  <support_vectors>
    <_>
      4.52626944e-001 4.40702289e-001 2.17073962e-001 1.76929370e-001
      4.31297682e-002 1.49791807e-001 7.73364365e-001 7.75931299e-001
      1.04466282e-001 1.30686805e-001 8.93592775e-001 1.</_>
    <_>
      2.15129331e-001 1.42739162e-001 7.91183650e-001 6.43084586e-001
      4.83625948e-001 3.18558365e-001 0. 6.53397977e-001 1.21294484e-001
      4.93533790e-001 5.87135255e-001 1.</_>
    <_>
      2.76524723e-002 1.82766411e-002 9.89202186e-002 7.47235790e-002
      4.32744203e-003 2.13981755e-002 8.37619066e-001 3.00076425e-001
      4.34165835e-001 4.30069655e-001 5.48114300e-001 1.</_>
    <_>
      1.82472542e-001 1.32941201e-001 1.03152655e-001 2.35222861e-001
      4.63130474e-002 1.16991639e-001 7.72989750e-001 5.17689586e-001
      2.43947387e-001 5.16291261e-001 5.92988133e-001 0.</_>
    <_>
      0. 3.72848101e-002 2.21023429e-002 7.45031983e-003 4.72914893e-003
      7.96687324e-003 7.88970232e-001 4.29625779e-001 3.34139436e-001
      4.17964429e-001 7.19207048e-001 1.</_>
    <_>
      8.34337100e-002 7.33423233e-003 4.01676685e-001 2.46721692e-002
      3.24252900e-003 1.20535605e-002 7.73708820e-001 3.65607381e-001
      5.50654769e-001 3.74438673e-001 4.61247832e-001 1.</_>
    <_>
      1.02608189e-001 5.99933825e-002 6.20464049e-002 1.29419073e-001
      1.16667915e-002 5.17774113e-002 7.11283922e-001 3.69837105e-001
      3.88202757e-001 3.32503259e-001 5.55649042e-001 1.</_>
    <_>
      8.36409628e-002 1.56844538e-002 3.58398110e-001 1.50345162e-001
      2.42253691e-002 2.70216279e-002 5.72533071e-001 2.68526316e-001
      3.39491993e-001 3.30025464e-001 4.19564724e-001 1.</_>
    <_>
      2.24337503e-001 2.59571504e-002 1. 1.97387889e-001 4.40993384e-002
      5.89250214e-002 2.22330227e-001 0. 5.77749848e-001 1.79649308e-001
      0. 1.</_>
    <_>
      5.14294207e-002 3.36468443e-002 2.48680159e-001 9.13649499e-002
      1.00820437e-002 2.74916533e-002 6.94492877e-001 3.95597965e-001
      1.82989240e-001 4.07269269e-001 5.22064567e-001 1.</_></support_vectors>
  <decision_functions>
    <_>
      <sv_count>10</sv_count>
      <rho>-1.9111983974010633e+000</rho>
      <alpha>
        2.0234349732381465e+000 3.1136136378616199e+000
        1.2500000000000000e+001 1.8146122911926560e-001
        5.8371879543276357e+000 1.1366918456641914e+001
        -1.2500000000000000e+001 -8.1160672622523027e+000
        -1.9065489889362766e+000 -1.2500000000000000e+001</alpha>
      <index>
        0 1 2 3 4 5 6 7 8 9</index></_></decision_functions></my_svm>
</opencv_storage>
