<?xml version="1.0"?>
<opencv_storage>
<my_svm type_id="opencv-ml-svm">
  <svm_type>C_SVC</svm_type>
  <kernel><type>RBF</type>
    <gamma>5.0625000000000009e-001</gamma></kernel>
  <C>1.2500000000000000e+001</C>
  <term_criteria><epsilon>1.1920928955078125e-007</epsilon>
    <iterations>100</iterations></term_criteria>
  <var_all>12</var_all>
  <var_count>12</var_count>
  <class_count>2</class_count>
  <class_labels type_id="opencv-matrix">
    <rows>1</rows>
    <cols>2</cols>
    <dt>i</dt>
    <data>
      -1 1</data></class_labels>
  <sv_total>16</sv_total>
  <support_vectors>
    <_>
      5.52234501e-002 1.40049523e-002 4.65262294e-001 1.31121627e-003
      1.58027967e-003 8.01396836e-003 7.89474785e-001 2.60513395e-001
      6.26057088e-001 3.83431971e-001 3.41537207e-001 1.</_>
    <_>
      1.60186931e-001 1.53597265e-001 6.89748168e-001 2.05444440e-001
      7.51545355e-002 7.26317391e-002 1. 7.23896921e-001 1.66251585e-001
      7.61468649e-001 5.93064964e-001 0.</_>
    <_>
      2.27492470e-002 3.85320485e-002 5.52324159e-003 3.41306301e-003
      1.61992863e-003 8.67865980e-003 7.88869321e-001 2.12735504e-001
      4.80343878e-001 3.59991759e-001 4.75710839e-001 0.</_>
    <_>
      1.19239716e-002 0. 6.29084138e-003 2.20012907e-002 1.48314005e-003
      7.45578296e-003 7.86000252e-001 2.84095407e-001 5.79930961e-001
      3.88987690e-001 4.34885174e-001 1.</_>
    <_>
      1.66355520e-001 1.54486522e-001 2.35753153e-002 6.11992292e-002
      2.17216811e-003 3.55439335e-002 7.69536853e-001 4.10156280e-001
      2.76252657e-001 7.15995848e-001 4.75911170e-001 0.</_>
    <_>
      2.42015019e-001 2.05573797e-001 8.34724724e-001 3.58111560e-001
      2.01266333e-001 1.75125062e-001 9.95316565e-001 7.01090276e-001
      1.27633318e-001 6.74255550e-001 5.90026855e-001 1.</_>
    <_>
      8.78575861e-001 5.86390138e-001 6.87896013e-001 3.01659405e-001
      1.43854111e-001 2.32045412e-001 7.93544590e-001 0. 1.
      1.01818234e-001 0. 1.</_>
    <_>
      2.27492470e-002 3.85320485e-002 5.52324159e-003 3.41306301e-003
      1.61992863e-003 8.67865980e-003 7.88869321e-001 2.12735504e-001
      4.80343878e-001 3.59991759e-001 4.75710839e-001 0.</_>
    <_>
      1.82472542e-001 1.32941201e-001 1.13453269e-001 2.35222861e-001
      4.32106256e-002 1.16991639e-001 7.72989750e-001 4.78762954e-001
      2.43947387e-001 5.16291261e-001 4.93740708e-001 0.</_>
    <_>
      8.34337100e-002 7.33423233e-003 4.41787332e-001 2.46721692e-002 0.
      1.20535605e-002 7.73708820e-001 3.14406395e-001 5.50654769e-001
      3.74438673e-001 3.29876363e-001 1.</_>
    <_>
      1.50124639e-001 8.85483995e-002 5.23104787e-001 5.11197699e-003
      1.44613441e-003 4.97886958e-003 7.91181147e-001 4.43656057e-001
      5.49844027e-001 5.00899136e-001 4.04603690e-001 0.</_>
    <_>
      1.76115751e-001 1.04212351e-001 2.06408039e-001 1.59115627e-001
      2.37227641e-002 7.45023340e-002 9.28076267e-001 2.41467506e-001
      3.98298055e-001 4.68801111e-001 4.06202137e-001 0.</_>
    <_>
      2.08152518e-001 9.77165252e-002 1.50886655e-001 1.66851729e-001
      1.23650813e-002 6.48128912e-002 9.61201489e-001 1.20665662e-001
      8.03351521e-001 3.12699944e-001 3.33554834e-001 0.</_>
    <_>
      6.05029706e-003 1.95374228e-002 9.74441618e-002 9.24881995e-002
      8.91930982e-003 3.00570410e-002 8.31203461e-001 3.91914278e-001
      2.77237773e-001 5.52106321e-001 5.08221269e-001 0.</_>
    <_>
      1.76115751e-001 1.04212351e-001 2.06408039e-001 1.59115627e-001
      2.37227641e-002 7.45023340e-002 9.28076267e-001 2.41467506e-001
      3.98298055e-001 4.68801111e-001 4.06202137e-001 0.</_>
    <_>
      2.76524723e-002 1.82766411e-002 1.08798198e-001 7.47235790e-002
      1.08844228e-003 2.13981755e-002 8.37619066e-001 2.43586540e-001
      4.34165835e-001 4.30069655e-001 4.37924683e-001 1.</_></support_vectors>
  <decision_functions>
    <_>
      <sv_count>16</sv_count>
      <rho>-1.8346925363616340e+000</rho>
      <alpha>
        7.3916747582680786e-001 1.7736988297191685e+000
        1.2500000000000000e+001 7.1587824447932080e+000
        2.8208107405878198e+000 1.3993944163911168e-001
        3.3412538665172681e-001 7.9117145371275157e+000
        1.2500000000000000e+001 3.9894916677814947e+000
        5.7411460580013607e+000 -1.2500000000000000e+001
        -5.6088765821282127e+000 -1.2500000000000000e+001
        -1.2500000000000000e+001 -1.2500000000000000e+001</alpha>
      <index>
        0 1 2 3 4 5 6 7 8 9 10 11 12 13 14 15</index></_></decision_functions></my_svm>
</opencv_storage>
