<?xml version="1.0"?>
<opencv_storage>
<my_svm type_id="opencv-ml-svm">
  <svm_type>C_SVC</svm_type>
  <kernel><type>RBF</type>
    <gamma>5.0625000000000009e-001</gamma></kernel>
  <C>6.2500000000000000e+001</C>
  <term_criteria><epsilon>1.1920928955078125e-007</epsilon>
    <iterations>100</iterations></term_criteria>
  <var_all>12</var_all>
  <var_count>12</var_count>
  <class_count>2</class_count>
  <class_labels type_id="opencv-matrix">
    <rows>1</rows>
    <cols>2</cols>
    <dt>i</dt>
    <data>
      -1 1</data></class_labels>
  <sv_total>14</sv_total>
  <support_vectors>
    <_>
      6.89339936e-002 9.36066881e-002 2.01037794e-001 0. 4.88634547e-003
      7.51224533e-003 7.88931191e-001 5.46052516e-001 2.50468850e-001
      6.92487776e-001 6.82452261e-001 0.</_>
    <_>
      3.09975743e-001 3.00700545e-001 4.89065915e-001 3.98050368e-001
      1.94823250e-001 2.66574442e-001 7.26043344e-001 8.78156066e-001
      7.82475844e-002 7.37716377e-001 8.17101359e-001 1.66666672e-001</_>
    <_>
      2.97406346e-001 2.87824273e-001 5.38877964e-001 3.03402275e-001
      1.36532560e-001 1.88075647e-001 6.69463158e-001 9.16961670e-001
      1.55330608e-002 9.29932952e-001 8.63824785e-001 1.66666672e-001</_>
    <_>
      1.04192816e-001 1.37960061e-001 1.70249846e-002 5.25652729e-002
      7.07036676e-003 3.12380567e-002 7.85450697e-001 5.90215206e-001
      1.86130524e-001 1. 6.98675692e-001 0.</_>
    <_>
      2.24337503e-001 2.59571504e-002 1. 1.97387889e-001 4.40993384e-002
      5.89250214e-002 2.22330227e-001 0. 5.77749848e-001 1.79649308e-001
      0. 1.</_>
    <_>
      2.15129331e-001 1.42739162e-001 7.91183650e-001 6.43084586e-001
      4.83625948e-001 3.18558365e-001 0. 6.53397977e-001 1.21294484e-001
      4.93533790e-001 5.87135255e-001 1.</_>
    <_>
      6.05029706e-003 1.95374228e-002 8.85970369e-002 9.24881995e-002
      1.21329175e-002 3.00570410e-002 8.31203461e-001 4.37326878e-001
      2.77237773e-001 5.52106321e-001 6.04629874e-001 0.</_>
    <_>
      2.17771947e-001 2.20267281e-001 4.56118375e-001 2.54989117e-001
      9.73794460e-002 1.19923234e-001 9.16174710e-001 9.02323425e-001
      4.58003432e-002 5.84500253e-001 8.41629386e-001 0.</_>
    <_>
      1.82472542e-001 1.32941201e-001 1.03152655e-001 2.35222861e-001
      4.63130474e-002 1.16991639e-001 7.72989750e-001 5.17689586e-001
      2.43947387e-001 5.16291261e-001 5.92988133e-001 0.</_>
    <_>
      1.50124639e-001 8.85483995e-002 4.75611210e-001 5.11197699e-003
      4.68397420e-003 4.97886958e-003 7.91181147e-001 4.85204518e-001
      5.49844027e-001 5.00899136e-001 5.21325529e-001 0.</_>
    <_>
      1.89077705e-001 1.74535900e-001 5.07693052e-001 3.55313748e-001
      1.68052301e-001 1.82849646e-001 7.26985872e-001 7.29436398e-001
      1.07836507e-001 6.54836655e-001 6.80858016e-001 0.</_>
    <_>
      8.78575861e-001 5.86390138e-001 6.25440717e-001 3.01659405e-001
      1.46630183e-001 2.32045412e-001 7.93544590e-001 7.46812373e-002 1.
      1.01818234e-001 1.96040630e-001 1.</_>
    <_>
      1.60186931e-001 1.53597265e-001 6.27124727e-001 2.05444440e-001
      7.81533793e-002 7.26317391e-002 1. 7.44516611e-001 1.66251585e-001
      7.61468649e-001 6.72840774e-001 0.</_>
    <_>
      9.01126862e-002 1.13404661e-001 3.77154171e-001 2.03894645e-001
      6.59928620e-002 8.56116265e-002 8.45991850e-001 7.72275686e-001
      4.77733202e-002 8.32797289e-001 7.10881412e-001 0.</_></support_vectors>
  <decision_functions>
    <_>
      <sv_count>14</sv_count>
      <rho>-1.7082306001934373e+000</rho>
      <alpha>
        4.9454607122739684e+000 3.0697684248567434e+000
        1.3832940749005203e+001 7.6551651985342328e+000
        1.5676153813825369e+000 1.5714339881689812e-001
        1.0002796661401265e+000 2.2181203812616648e+001
        4.9133513656291337e+000 3.6766465283227396e+000
        -2.2339988925926328e+001 -4.4738637702510404e+000
        -4.6736511945385839e-001 -3.5718357421947005e+001</alpha>
      <index>
        0 1 2 3 4 5 6 7 8 9 10 11 12 13</index></_></decision_functions></my_svm>
</opencv_storage>
