<?xml version="1.0"?>
<opencv_storage>
<my_svm type_id="opencv-ml-svm">
  <svm_type>C_SVC</svm_type>
  <kernel><type>RBF</type>
    <gamma>5.0625000000000009e-001</gamma></kernel>
  <C>6.2500000000000000e+001</C>
  <term_criteria><epsilon>1.1920928955078125e-007</epsilon>
    <iterations>100</iterations></term_criteria>
  <var_all>12</var_all>
  <var_count>12</var_count>
  <class_count>2</class_count>
  <class_labels type_id="opencv-matrix">
    <rows>1</rows>
    <cols>2</cols>
    <dt>i</dt>
    <data>
      -1 1</data></class_labels>
  <sv_total>12</sv_total>
  <support_vectors>
    <_>
      5.53960562e-001 7.46075213e-002 2.24099141e-002 2.98156496e-002
      3.92168091e-004 9.87457484e-003 4.83018309e-002 7.34030008e-001
      8.19142461e-001 6.47278428e-001 7.13570654e-001 1.</_>
    <_>
      0. 0. 0. 0. 5.54713406e-005 8.39423970e-004 6.37046173e-002 0. 0.
      0. 0. 0.</_>
    <_>
      5.38962960e-001 3.44405547e-002 5.50158918e-002 2.72045173e-002
      2.44587922e-004 5.34445560e-003 4.07058299e-002 6.99962914e-001
      7.95578182e-001 6.98186934e-001 6.37398601e-001 1.</_>
    <_>
      5.13310850e-001 2.06971914e-002 6.62580654e-002 3.15506058e-003
      4.84157390e-005 1.22851273e-003 6.27034754e-002 7.52519906e-001
      8.80017638e-001 7.20174015e-001 6.83029056e-001 1.</_>
    <_>
      5.33240855e-001 7.21855834e-002 4.89925258e-002 1.56738935e-003
      6.92160102e-005 8.26771255e-004 6.36996254e-002 8.31259370e-001
      8.44953537e-001 8.40364277e-001 7.72401154e-001 1.</_>
    <_>
      5.42047799e-001 8.50814581e-002 1.72779150e-002 5.67812659e-003 0.
      2.66236020e-003 6.39166459e-002 7.13741958e-001 7.70660937e-001
      6.89588010e-001 7.29862571e-001 2.50000000e-001</_>
    <_>
      5.81705391e-001 1.23554826e-001 5.97055070e-002 2.40862276e-003
      7.61883130e-005 1.15396525e-003 6.32571280e-002 7.76239038e-001
      9.85744953e-001 7.49189615e-001 6.77592695e-001 2.50000000e-001</_>
    <_>
      5.49995542e-001 5.16983010e-002 1.08072631e-001 1.44402307e-004
      5.54487888e-005 8.55674443e-004 6.37172759e-002 7.18619823e-001 1.
      6.83559954e-001 6.57642543e-001 1.</_>
    <_>
      5.11397898e-001 3.63463499e-002 8.72571312e-004 5.26169362e-003
      5.63360991e-005 1.74190151e-003 6.39543235e-002 7.34291792e-001
      9.79654193e-001 6.78390205e-001 7.54369617e-001 2.50000000e-001</_>
    <_>
      4.93309438e-001 1.99187584e-002 2.00927863e-003 3.57777230e-003
      4.59838084e-005 9.38142941e-004 6.37372285e-002 7.40591705e-001
      9.34797049e-001 7.28036344e-001 7.25791276e-001 1.</_>
    <_>
      5.21417797e-001 5.06282672e-002 4.44318354e-003 3.31635168e-003
      5.00936985e-005 1.51172862e-003 6.39609769e-002 6.86119854e-001
      9.52723980e-001 6.72622323e-001 7.14981139e-001 2.50000000e-001</_>
    <_>
      4.98259634e-001 2.25508604e-002 6.30746037e-003 3.24954488e-003
      4.11142755e-005 1.00552209e-003 6.37771115e-002 7.68539727e-001
      8.72626901e-001 6.96749091e-001 7.77156353e-001 1.</_></support_vectors>
  <decision_functions>
    <_>
      <sv_count>12</sv_count>
      <rho>-6.9862204708029452e-001</rho>
      <alpha>
        6.2500000000000000e+001 9.5191118369665373e-001
        1.0179533577249538e+000 6.2500000000000000e+001
        5.4366241210157291e+000 2.2028786368847917e+000
        6.2500000000000000e+001 -5.9243833796697118e+001
        -1.6797801456401957e+000 -1.1185753356984852e+001
        -6.2500000000000000e+001 -6.2500000000000000e+001</alpha>
      <index>
        0 1 2 3 4 5 6 7 8 9 10 11</index></_></decision_functions></my_svm>
</opencv_storage>
