<?xml version="1.0"?>
<opencv_storage>
<my_svm type_id="opencv-ml-svm">
  <svm_type>C_SVC</svm_type>
  <kernel><type>RBF</type>
    <gamma>3.3750000000000002e-002</gamma></kernel>
  <C>6.2500000000000000e+001</C>
  <term_criteria><epsilon>1.1920928955078125e-007</epsilon>
    <iterations>100</iterations></term_criteria>
  <var_all>12</var_all>
  <var_count>12</var_count>
  <class_count>2</class_count>
  <class_labels type_id="opencv-matrix">
    <rows>1</rows>
    <cols>2</cols>
    <dt>i</dt>
    <data>
      -1 1</data></class_labels>
  <sv_total>8</sv_total>
  <support_vectors>
    <_>
      9.64455128e-001 9.52190697e-001 1.13846712e-001 3.98198664e-002
      6.18162891e-003 9.25864745e-003 7.70283341e-001 6.65032327e-001
      2.33269408e-001 6.51833832e-001 8.36356044e-001 1.</_>
    <_>
      4.92198199e-001 4.22463417e-001 2.52478331e-001 3.15825380e-002
      6.50706748e-003 0. 8.07646632e-001 6.00950599e-001 2.59433925e-001
      4.52321321e-001 6.71678245e-001 1.</_>
    <_>
      2.42015019e-001 2.05573797e-001 7.58938611e-001 3.58111560e-001
      2.03856260e-001 1.75125062e-001 9.95316565e-001 7.23413229e-001
      1.27633318e-001 6.74255550e-001 6.70398235e-001 1.</_>
    <_>
      0. 3.72848101e-002 2.21023429e-002 7.45031983e-003 4.72914893e-003
      7.96687324e-003 7.88970232e-001 4.29625779e-001 3.34139436e-001
      4.17964429e-001 7.19207048e-001 1.</_>
    <_>
      1.18866235e-001 1.89450532e-001 8.35082382e-002 5.78961857e-002
      9.61179938e-003 3.98456864e-002 7.90400326e-001 1. 0.
      6.64229274e-001 1. 0.</_>
    <_>
      2.15129331e-001 1.42739162e-001 7.91183650e-001 6.43084586e-001
      4.83625948e-001 3.18558365e-001 0. 6.53397977e-001 1.21294484e-001
      4.93533790e-001 5.87135255e-001 1.</_>
    <_>
      3.33627492e-001 3.29309642e-001 1.59702599e-001 7.00174943e-002
      1.30753256e-002 3.63639183e-002 8.01162302e-001 8.45646322e-001
      1.16490774e-001 2.23671496e-001 8.90031993e-001 1.</_>
    <_>
      4.52626944e-001 4.40702289e-001 2.17073962e-001 1.76929370e-001
      4.31297682e-002 1.49791807e-001 7.73364365e-001 7.75931299e-001
      1.04466282e-001 1.30686805e-001 8.93592775e-001 1.</_></support_vectors>
  <decision_functions>
    <_>
      <sv_count>8</sv_count>
      <rho>-1.7775127838062594e+000</rho>
      <alpha>
        1.5646883103504337e+001 6.2500000000000000e+001
        1.7375807681301012e+000 2.2600177902434638e+001
        1.3841716795613657e+001 8.6736414303172822e+000
        -6.2500000000000000e+001 -6.2500000000000000e+001</alpha>
      <index>
        0 1 2 3 4 5 6 7</index></_></decision_functions></my_svm>
</opencv_storage>
