<?xml version="1.0"?>
<opencv_storage>
<my_svm type_id="opencv-ml-svm">
  <svm_type>C_SVC</svm_type>
  <kernel><type>RBF</type>
    <gamma>5.0625000000000009e-001</gamma></kernel>
  <C>1.2500000000000000e+001</C>
  <term_criteria><epsilon>1.1920928955078125e-007</epsilon>
    <iterations>100</iterations></term_criteria>
  <var_all>12</var_all>
  <var_count>12</var_count>
  <class_count>2</class_count>
  <class_labels type_id="opencv-matrix">
    <rows>1</rows>
    <cols>2</cols>
    <dt>i</dt>
    <data>
      -1 1</data></class_labels>
  <sv_total>13</sv_total>
  <support_vectors>
    <_>
      1.89077705e-001 1.74535900e-001 5.07693052e-001 3.55313748e-001
      1.68052301e-001 1.82849646e-001 7.26985872e-001 7.29436398e-001
      1.07836507e-001 6.54836655e-001 6.80858016e-001 0.</_>
    <_>
      2.42015019e-001 2.05573797e-001 7.58938611e-001 3.58111560e-001
      2.03856260e-001 1.75125062e-001 9.95316565e-001 7.23413229e-001
      1.27633318e-001 6.74255550e-001 6.70398235e-001 1.</_>
    <_>
      1.60186931e-001 1.53597265e-001 6.27124727e-001 2.05444440e-001
      7.81533793e-002 7.26317391e-002 1. 7.44516611e-001 1.66251585e-001
      7.61468649e-001 6.72840774e-001 0.</_>
    <_>
      7.30491281e-002 5.87820746e-002 9.09208298e-001 3.75391245e-001
      2.41141737e-001 1.34109482e-001 8.09352636e-001 8.07603836e-001
      5.55692017e-002 4.76944596e-001 6.35730386e-001 0.</_>
    <_>
      7.27163136e-001 6.77836001e-001 8.58277500e-001 1. 1. 1.
      6.63937211e-001 7.61962771e-001 2.03956470e-001 0. 7.95040667e-001
      1.</_>
    <_>
      1. 1. 9.22678038e-002 1.43182695e-001 2.36650463e-002
      1.65896937e-001 7.78389752e-001 7.00704396e-001 3.47077787e-001
      7.57676542e-001 7.91433394e-001 1.</_>
    <_>
      9.01126862e-002 1.13404661e-001 3.77154171e-001 2.03894645e-001
      6.59928620e-002 8.56116265e-002 8.45991850e-001 7.72275686e-001
      4.77733202e-002 8.32797289e-001 7.10881412e-001 0.</_>
    <_>
      4.68555659e-001 4.59033042e-001 2.41660759e-001 2.02486247e-001
      5.40233701e-002 1.61504745e-001 8.15675735e-001 8.51296663e-001
      1.40953004e-001 1.73404403e-002 8.91662002e-001 1.</_>
    <_>
      3.33627492e-001 3.29309642e-001 1.59702599e-001 7.00174943e-002
      1.30753256e-002 3.63639183e-002 8.01162302e-001 8.45646322e-001
      1.16490774e-001 2.23671496e-001 8.90031993e-001 1.</_>
    <_>
      2.97406346e-001 2.87824273e-001 5.38877964e-001 3.03402275e-001
      1.36532560e-001 1.88075647e-001 6.69463158e-001 9.16961670e-001
      1.55330608e-002 9.29932952e-001 8.63824785e-001 1.66666672e-001</_>
    <_>
      1.18866235e-001 1.89450532e-001 8.35082382e-002 5.78961857e-002
      9.61179938e-003 3.98456864e-002 7.90400326e-001 1. 0.
      6.64229274e-001 1. 0.</_>
    <_>
      2.17771947e-001 2.20267281e-001 4.56118375e-001 2.54989117e-001
      9.73794460e-002 1.19923234e-001 9.16174710e-001 9.02323425e-001
      4.58003432e-002 5.84500253e-001 8.41629386e-001 0.</_>
    <_>
      3.09975743e-001 3.00700545e-001 4.89065915e-001 3.98050368e-001
      1.94823250e-001 2.66574442e-001 7.26043344e-001 8.78156066e-001
      7.82475844e-002 7.37716377e-001 8.17101359e-001 1.66666672e-001</_></support_vectors>
  <decision_functions>
    <_>
      <sv_count>13</sv_count>
      <rho>-1.3831917286385222e+000</rho>
      <alpha>
        1.2500000000000000e+001 2.0672967663991998e-001
        9.6808741318845204e-001 8.6194496928173728e-002
        9.0341456232960804e-002 6.2827612092477447e-001
        1.0750102366783546e+001 2.1670607092074259e+000
        4.4517974575439540e-001 -2.4470094077084368e+000
        -2.7976752481208438e+000 -1.2500000000000000e+001
        -1.0097287329830372e+001</alpha>
      <index>
        0 1 2 3 4 5 6 7 8 9 10 11 12</index></_></decision_functions></my_svm>
</opencv_storage>
