<?xml version="1.0"?>
<opencv_storage>
<my_svm type_id="opencv-ml-svm">
  <svm_type>C_SVC</svm_type>
  <kernel><type>RBF</type>
    <gamma>5.0625000000000009e-001</gamma></kernel>
  <C>2.5000000000000000e+000</C>
  <term_criteria><epsilon>1.1920928955078125e-007</epsilon>
    <iterations>100</iterations></term_criteria>
  <var_all>12</var_all>
  <var_count>12</var_count>
  <class_count>2</class_count>
  <class_labels type_id="opencv-matrix">
    <rows>1</rows>
    <cols>2</cols>
    <dt>i</dt>
    <data>
      -1 1</data></class_labels>
  <sv_total>13</sv_total>
  <support_vectors>
    <_>
      4.52626944e-001 4.40702289e-001 2.17073962e-001 1.76929370e-001
      4.31297682e-002 1.49791807e-001 7.73364365e-001 7.75931299e-001
      1.04466282e-001 1.30686805e-001 8.93592775e-001 1.</_>
    <_>
      8.78575861e-001 5.86390138e-001 6.25440717e-001 3.01659405e-001
      1.46630183e-001 2.32045412e-001 7.93544590e-001 7.46812373e-002 1.
      1.01818234e-001 1.96040630e-001 1.</_>
    <_>
      2.24337503e-001 2.59571504e-002 1. 1.97387889e-001 4.40993384e-002
      5.89250214e-002 2.22330227e-001 0. 5.77749848e-001 1.79649308e-001
      0. 1.</_>
    <_>
      7.27163136e-001 6.77836001e-001 8.58277500e-001 1. 1. 1.
      6.63937211e-001 7.61962771e-001 2.03956470e-001 0. 7.95040667e-001
      1.</_>
    <_>
      1.46691218e-001 2.25057527e-002 4.86404926e-001 1.73758760e-001
      1.37216831e-002 2.88504995e-002 4.32599068e-001 1.51288971e-001
      4.59638685e-001 3.66859466e-001 2.93652326e-001 1.</_>
    <_>
      2.97406346e-001 2.87824273e-001 5.38877964e-001 3.03402275e-001
      1.36532560e-001 1.88075647e-001 6.69463158e-001 9.16961670e-001
      1.55330608e-002 9.29932952e-001 8.63824785e-001 1.66666672e-001</_>
    <_>
      6.66191801e-002 9.67959687e-002 1.46821201e-001 5.61547559e-003
      4.80227405e-003 4.79086908e-003 7.90568352e-001 6.00212157e-001
      3.05540502e-001 7.44384885e-001 7.13525474e-001 1.</_>
    <_>
      4.68555659e-001 4.59033042e-001 2.41660759e-001 2.02486247e-001
      5.40233701e-002 1.61504745e-001 8.15675735e-001 8.51296663e-001
      1.40953004e-001 1.73404403e-002 8.91662002e-001 1.</_>
    <_>
      4.92198199e-001 4.22463417e-001 2.52478331e-001 3.15825380e-002
      6.50706748e-003 0. 8.07646632e-001 6.00950599e-001 2.59433925e-001
      4.52321321e-001 6.71678245e-001 1.</_>
    <_>
      9.64455128e-001 9.52190697e-001 1.13846712e-001 3.98198664e-002
      6.18162891e-003 9.25864745e-003 7.70283341e-001 6.65032327e-001
      2.33269408e-001 6.51833832e-001 8.36356044e-001 1.</_>
    <_>
      2.42015019e-001 2.05573797e-001 7.58938611e-001 3.58111560e-001
      2.03856260e-001 1.75125062e-001 9.95316565e-001 7.23413229e-001
      1.27633318e-001 6.74255550e-001 6.70398235e-001 1.</_>
    <_>
      1. 1. 9.22678038e-002 1.43182695e-001 2.36650463e-002
      1.65896937e-001 7.78389752e-001 7.00704396e-001 3.47077787e-001
      7.57676542e-001 7.91433394e-001 1.</_>
    <_>
      2.15129331e-001 1.42739162e-001 7.91183650e-001 6.43084586e-001
      4.83625948e-001 3.18558365e-001 0. 6.53397977e-001 1.21294484e-001
      4.93533790e-001 5.87135255e-001 1.</_></support_vectors>
  <decision_functions>
    <_>
      <sv_count>13</sv_count>
      <rho>-8.1897546103417740e-001</rho>
      <alpha>
        2.5000000000000000e+000 8.5865837772129316e-001
        5.5977061754353119e-001 8.7505305079155349e-001
        6.4267859904917990e-001 1.6734573388344596e+000
        2.1741647633122976e+000 1.0486235012959479e+000
        -2.5000000000000000e+000 -2.5000000000000000e+000
        -2.5000000000000000e+000 -3.3240624854826278e-001
        -2.5000000000000000e+000</alpha>
      <index>
        0 1 2 3 4 5 6 7 8 9 10 11 12</index></_></decision_functions></my_svm>
</opencv_storage>
