<?xml version="1.0"?>
<opencv_storage>
<my_svm type_id="opencv-ml-svm">
  <svm_type>C_SVC</svm_type>
  <kernel><type>RBF</type>
    <gamma>5.0625000000000009e-001</gamma></kernel>
  <C>1.2500000000000000e+001</C>
  <term_criteria><epsilon>1.1920928955078125e-007</epsilon>
    <iterations>100</iterations></term_criteria>
  <var_all>12</var_all>
  <var_count>12</var_count>
  <class_count>2</class_count>
  <class_labels type_id="opencv-matrix">
    <rows>1</rows>
    <cols>2</cols>
    <dt>i</dt>
    <data>
      -1 1</data></class_labels>
  <sv_total>13</sv_total>
  <support_vectors>
    <_>
      6.89339936e-002 9.36066881e-002 2.01037794e-001 0. 4.88634547e-003
      7.51224533e-003 7.88931191e-001 5.46052516e-001 2.50468850e-001
      6.92487776e-001 6.82452261e-001 0.</_>
    <_>
      3.09975743e-001 3.00700545e-001 4.89065915e-001 3.98050368e-001
      1.94823250e-001 2.66574442e-001 7.26043344e-001 8.78156066e-001
      7.82475844e-002 7.37716377e-001 8.17101359e-001 1.66666672e-001</_>
    <_>
      1.02384597e-001 1.04018204e-001 1.31806895e-001 1.76543370e-002
      5.58772776e-003 1.36349052e-002 7.83936143e-001 5.52436709e-001
      4.65828598e-001 6.92884624e-001 6.96258605e-001 0.</_>
    <_>
      1.76115751e-001 1.04212351e-001 1.87667891e-001 1.59115627e-001
      2.68883705e-002 7.45023340e-002 9.28076267e-001 2.98115671e-001
      3.98298055e-001 4.68801111e-001 5.22610664e-001 0.</_>
    <_>
      2.97406346e-001 2.87824273e-001 5.38877964e-001 3.03402275e-001
      1.36532560e-001 1.88075647e-001 6.69463158e-001 9.16961670e-001
      1.55330608e-002 9.29932952e-001 8.63824785e-001 1.66666672e-001</_>
    <_>
      9.01126862e-002 1.13404661e-001 3.77154171e-001 2.03894645e-001
      6.59928620e-002 8.56116265e-002 8.45991850e-001 7.72275686e-001
      4.77733202e-002 8.32797289e-001 7.10881412e-001 0.</_>
    <_>
      1.18866235e-001 1.89450532e-001 8.35082382e-002 5.78961857e-002
      9.61179938e-003 3.98456864e-002 7.90400326e-001 1. 0.
      6.64229274e-001 1. 0.</_>
    <_>
      6.05029706e-003 1.95374228e-002 8.85970369e-002 9.24881995e-002
      1.21329175e-002 3.00570410e-002 8.31203461e-001 4.37326878e-001
      2.77237773e-001 5.52106321e-001 6.04629874e-001 0.</_>
    <_>
      1. 1. 9.22678038e-002 1.43182695e-001 2.36650463e-002
      1.65896937e-001 7.78389752e-001 7.00704396e-001 3.47077787e-001
      7.57676542e-001 7.91433394e-001 1.</_>
    <_>
      1.66355520e-001 1.54486522e-001 2.14348715e-002 6.11992292e-002
      5.40765375e-003 3.55439335e-002 7.69536853e-001 4.54206526e-001
      2.76252657e-001 7.15995848e-001 5.78653872e-001 0.</_>
    <_>
      2.47356236e-001 2.17213169e-001 1.06317237e-001 1.48009017e-001
      2.59819105e-002 8.77656117e-002 7.86870658e-001 5.67054451e-001
      2.45557100e-001 8.90569985e-001 6.85572922e-001 0.</_>
    <_>
      1.82472542e-001 1.32941201e-001 1.03152655e-001 2.35222861e-001
      4.63130474e-002 1.16991639e-001 7.72989750e-001 5.17689586e-001
      2.43947387e-001 5.16291261e-001 5.92988133e-001 0.</_>
    <_>
      1.04192816e-001 1.37960061e-001 1.70249846e-002 5.25652729e-002
      7.07036676e-003 3.12380567e-002 7.85450697e-001 5.90215206e-001
      1.86130524e-001 1. 6.98675692e-001 0.</_></support_vectors>
  <decision_functions>
    <_>
      <sv_count>13</sv_count>
      <rho>-1.5982493623964635e+000</rho>
      <alpha>
        7.3259613772282437e+000 1.4974757539036672e+000
        9.5309747671890648e+000 3.3271321791085349e+000
        6.7455411536744600e-002 4.0959149464937745e+000
        1.2645480886643297e+000 1.0017139932985705e+001
        9.3417215065742132e-001 -1.2500000000000000e+001
        -4.1235516229971427e+000 -1.2500000000000000e+001
        -8.9372229847703473e+000</alpha>
      <index>
        0 1 2 3 4 5 6 7 8 9 10 11 12</index></_></decision_functions></my_svm>
</opencv_storage>
