<?xml version="1.0"?>
<opencv_storage>
<my_svm type_id="opencv-ml-svm">
  <svm_type>C_SVC</svm_type>
  <kernel><type>RBF</type>
    <gamma>5.0625000000000009e-001</gamma></kernel>
  <C>6.2500000000000000e+001</C>
  <term_criteria><epsilon>1.1920928955078125e-007</epsilon>
    <iterations>100</iterations></term_criteria>
  <var_all>12</var_all>
  <var_count>12</var_count>
  <class_count>2</class_count>
  <class_labels type_id="opencv-matrix">
    <rows>1</rows>
    <cols>2</cols>
    <dt>i</dt>
    <data>
      -1 1</data></class_labels>
  <sv_total>13</sv_total>
  <support_vectors>
    <_>
      1.60186931e-001 1.53597265e-001 6.27124727e-001 2.05444440e-001
      7.81533793e-002 7.26317391e-002 1. 7.44516611e-001 1.66251585e-001
      7.61468649e-001 6.72840774e-001 0.</_>
    <_>
      5.14294207e-002 3.36468443e-002 2.48680159e-001 9.13649499e-002
      1.00820437e-002 2.74916533e-002 6.94492877e-001 3.95597965e-001
      1.82989240e-001 4.07269269e-001 5.22064567e-001 1.</_>
    <_>
      1.66355520e-001 1.54486522e-001 2.14348715e-002 6.11992292e-002
      5.40765375e-003 3.55439335e-002 7.69536853e-001 4.54206526e-001
      2.76252657e-001 7.15995848e-001 5.78653872e-001 0.</_>
    <_>
      1.18866235e-001 1.89450532e-001 8.35082382e-002 5.78961857e-002
      9.61179938e-003 3.98456864e-002 7.90400326e-001 1. 0.
      6.64229274e-001 1. 0.</_>
    <_>
      4.92198199e-001 4.22463417e-001 2.52478331e-001 3.15825380e-002
      6.50706748e-003 0. 8.07646632e-001 6.00950599e-001 2.59433925e-001
      4.52321321e-001 6.71678245e-001 1.</_>
    <_>
      6.05029706e-003 1.95374228e-002 8.85970369e-002 9.24881995e-002
      1.21329175e-002 3.00570410e-002 8.31203461e-001 4.37326878e-001
      2.77237773e-001 5.52106321e-001 6.04629874e-001 0.</_>
    <_>
      0. 3.72848101e-002 2.21023429e-002 7.45031983e-003 4.72914893e-003
      7.96687324e-003 7.88970232e-001 4.29625779e-001 3.34139436e-001
      4.17964429e-001 7.19207048e-001 1.</_>
    <_>
      1.04192816e-001 1.37960061e-001 1.70249846e-002 5.25652729e-002
      7.07036676e-003 3.12380567e-002 7.85450697e-001 5.90215206e-001
      1.86130524e-001 1. 6.98675692e-001 0.</_>
    <_>
      5.52234501e-002 1.40049523e-002 4.23020333e-001 1.31121627e-003
      4.81768465e-003 8.01396836e-003 7.89474785e-001 3.15739155e-001
      6.26057088e-001 3.83431971e-001 4.70622689e-001 1.</_>
    <_>
      1.02384597e-001 1.04018204e-001 1.31806895e-001 1.76543370e-002
      5.58772776e-003 1.36349052e-002 7.83936143e-001 5.52436709e-001
      4.65828598e-001 6.92884624e-001 6.96258605e-001 0.</_>
    <_>
      8.34337100e-002 7.33423233e-003 4.01676685e-001 2.46721692e-002
      3.24252900e-003 1.20535605e-002 7.73708820e-001 3.65607381e-001
      5.50654769e-001 3.74438673e-001 4.61247832e-001 1.</_>
    <_>
      6.89339936e-002 9.36066881e-002 2.01037794e-001 0. 4.88634547e-003
      7.51224533e-003 7.88931191e-001 5.46052516e-001 2.50468850e-001
      6.92487776e-001 6.82452261e-001 0.</_>
    <_>
      6.66191801e-002 9.67959687e-002 1.46821201e-001 5.61547559e-003
      4.80227405e-003 4.79086908e-003 7.90568352e-001 6.00212157e-001
      3.05540502e-001 7.44384885e-001 7.13525474e-001 1.</_></support_vectors>
  <decision_functions>
    <_>
      <sv_count>13</sv_count>
      <rho>-5.0731326550989566e+000</rho>
      <alpha>
        1.1136938769394368e+001 8.8196341756292362e+000
        1.0782270300863438e+001 3.9020970616609842e+000
        4.7763913760675063e+000 3.0604530140783577e+001
        7.4170855376256313e+000 1.7866122536327268e+001
        5.5330507603730119e+001 -1.0488062649958415e+001
        -6.2500000000000000e+001 -6.2500000000000000e+001
        -1.5147514852123694e+001</alpha>
      <index>
        0 1 2 3 4 5 6 7 8 9 10 11 12</index></_></decision_functions></my_svm>
</opencv_storage>
