<?xml version="1.0"?>
<opencv_storage>
<my_svm type_id="opencv-ml-svm">
  <svm_type>C_SVC</svm_type>
  <kernel><type>RBF</type>
    <gamma>5.0625000000000009e-001</gamma></kernel>
  <C>3.1250000000000000e+002</C>
  <term_criteria><epsilon>1.1920928955078125e-007</epsilon>
    <iterations>100</iterations></term_criteria>
  <var_all>12</var_all>
  <var_count>12</var_count>
  <class_count>2</class_count>
  <class_labels type_id="opencv-matrix">
    <rows>1</rows>
    <cols>2</cols>
    <dt>i</dt>
    <data>
      -1 1</data></class_labels>
  <sv_total>14</sv_total>
  <support_vectors>
    <_>
      3.94590944e-001 3.37862521e-001 9.28458348e-002 3.14263478e-002
      1.52321104e-002 3.01550124e-002 1.62041917e-001 8.04697454e-001
      2.26886570e-001 2.77252167e-001 7.33675539e-001 2.50000000e-001</_>
    <_>
      1.41907483e-001 7.77834728e-002 3.67194414e-002 1.80240311e-002
      1.52193094e-002 4.15338092e-002 1.74652562e-001 5.20211577e-001
      3.08388054e-001 3.48917395e-001 7.26275027e-001 2.50000000e-001</_>
    <_>
      1.44389018e-001 8.59813690e-002 1.07507594e-002 2.03906465e-003
      1.46624520e-002 3.77834961e-002 1.74615562e-001 6.85587585e-001
      4.78509843e-001 6.85661972e-001 7.76048362e-001 2.50000000e-001</_>
    <_>
      2.23785758e-001 1.81166515e-001 5.72604947e-002 2.87064165e-002
      1.60070024e-002 4.91492487e-002 1.72560439e-001 8.16039383e-001
      1.66390851e-001 3.49300802e-001 8.48846138e-001 6.25000000e-001</_>
    <_>
      1.67031199e-001 9.51080471e-002 3.70720252e-002 1.52917940e-003
      1.46637661e-002 3.66287343e-002 1.74773231e-001 6.57669902e-001
      4.37032372e-001 5.63675940e-001 6.96710467e-001 2.50000000e-001</_>
    <_>
      2.03744486e-001 1.44880116e-001 1.09456606e-001 7.11662695e-002
      2.17778590e-002 6.30676895e-002 1.61116526e-001 8.56759250e-001
      1.88181669e-001 3.18072706e-001 7.70958126e-001 6.25000000e-001</_>
    <_>
      1.53861046e-001 9.41723511e-002 6.70404267e-003 3.55394767e-003
      1.46861468e-002 3.68240774e-002 1.74766257e-001 6.10278904e-001
      2.42001921e-001 5.67313850e-001 7.11296022e-001 2.50000000e-001</_>
    <_>
      6.11787550e-002 2.94317435e-002 3.46776508e-002 2.29644356e-003
      1.46547779e-002 3.67108062e-002 1.74542382e-001 8.49588275e-001
      1.18303008e-001 7.10686147e-001 8.23874831e-001 3.75000000e-001</_>
    <_>
      5.13844714e-002 1.34629887e-002 5.66622391e-002 3.94816743e-003
      1.47164771e-002 3.75725068e-002 1.74327627e-001 7.60187924e-001
      1.42900214e-001 6.37077987e-001 8.07233036e-001 3.75000000e-001</_>
    <_>
      1.59893006e-001 1.27122298e-001 2.74930708e-003 4.96797822e-003
      1.46908062e-002 3.90706435e-002 1.74639896e-001 8.65548670e-001
      1.31330952e-001 4.54674065e-001 9.17826891e-001 2.50000000e-001</_>
    <_>
      7.68866315e-002 3.72323468e-002 0. 5.90263633e-003 1.46722253e-002
      3.80931571e-002 1.74720466e-001 7.74441004e-001 1.67619184e-001
      6.30198538e-001 8.09225261e-001 3.75000000e-001</_>
    <_>
      1.94024459e-001 1.35401130e-001 1.07445347e-003 1.15346536e-002
      1.47205172e-002 4.11050245e-002 1.74680308e-001 6.63705349e-001
      3.04960370e-001 3.09749365e-001 7.45320320e-001 2.50000000e-001</_>
    <_>
      1.91373110e-001 1.24120548e-001 2.16227192e-002 2.46251449e-002
      1.53319556e-002 4.25694510e-002 1.73884660e-001 6.87762499e-001
      2.99867898e-001 4.78383362e-001 7.56824255e-001 2.50000000e-001</_>
    <_>
      1.91373110e-001 1.24120548e-001 2.16227192e-002 2.46251449e-002
      1.53319556e-002 4.25694510e-002 1.73884660e-001 6.87762499e-001
      2.99867898e-001 4.78383362e-001 7.56824255e-001 2.50000000e-001</_></support_vectors>
  <decision_functions>
    <_>
      <sv_count>14</sv_count>
      <rho>-1.9307412813816196e+001</rho>
      <alpha>
        1.6536898426189943e+001 1.1241064072277612e+002
        1.3069543686041033e+001 7.1512154119894449e+000
        2.3979395032554638e+002 5.7830333309545345e+001
        2.6912899833459971e+002 5.1126782960101245e+001
        3.8765699872033245e+001 2.4457487886652822e+002
        -3.1250000000000000e+002 -1.1288894191535078e+002
        -3.1250000000000000e+002 -3.1250000000000000e+002</alpha>
      <index>
        0 1 2 3 4 5 6 7 8 9 10 11 12 13</index></_></decision_functions></my_svm>
</opencv_storage>
