<?xml version="1.0"?>
<opencv_storage>
<my_svm type_id="opencv-ml-svm">
  <svm_type>C_SVC</svm_type>
  <kernel><type>RBF</type>
    <gamma>5.0625000000000009e-001</gamma></kernel>
  <C>3.1250000000000000e+002</C>
  <term_criteria><epsilon>1.1920928955078125e-007</epsilon>
    <iterations>100</iterations></term_criteria>
  <var_all>12</var_all>
  <var_count>12</var_count>
  <class_count>2</class_count>
  <class_labels type_id="opencv-matrix">
    <rows>1</rows>
    <cols>2</cols>
    <dt>i</dt>
    <data>
      -1 1</data></class_labels>
  <sv_total>14</sv_total>
  <support_vectors>
    <_>
      3.50842625e-001 2.27479637e-001 1.49839699e-001 6.29408211e-002
      1.80098265e-002 2.80740447e-002 1.32546470e-001 5.86027622e-001
      2.68531382e-001 3.32812577e-001 5.20278156e-001 1.</_>
    <_>
      1.79041266e-001 3.74180339e-002 7.20280558e-002 6.22489974e-002
      1.30430190e-002 4.99815196e-002 1.43897027e-001 3.62134576e-001
      3.29370379e-001 2.53697217e-001 4.24662173e-001 1.</_>
    <_>
      1.60430789e-001 5.82246147e-002 2.40855888e-002 4.45892699e-002
      1.60839055e-002 4.83315215e-002 1.81767777e-001 4.85871881e-001
      2.60934263e-001 3.99724215e-001 6.07187867e-001 1.</_>
    <_>
      2.96555668e-001 2.37181351e-001 3.67837548e-002 7.75568001e-003
      1.46481153e-002 3.69664133e-002 1.75724253e-001 6.61233962e-001
      1.86844677e-001 3.00228834e-001 7.59709835e-001 1.</_>
    <_>
      1.50121823e-001 6.80160299e-002 4.88920510e-002 2.62241475e-002
      1.56764332e-002 4.41041663e-002 1.78002819e-001 4.03619826e-001
      4.17471915e-001 4.34439927e-001 6.36444807e-001 1.</_>
    <_>
      2.43102729e-001 1.57992303e-001 1.18927181e-001 2.96247862e-002
      1.58162620e-002 3.42542082e-002 1.86147705e-001 7.54355073e-001
      2.45763853e-001 2.58220106e-001 6.43483520e-001 1.</_>
    <_>
      1.62546068e-001 1.05091378e-001 2.96947882e-002 1.13807747e-003
      1.46604329e-002 3.68658789e-002 1.74664199e-001 7.59787261e-001
      1.62833810e-001 3.75918388e-001 7.47603595e-001 1.</_>
    <_>
      2.83091277e-001 2.35590458e-001 1.23431534e-002 1.14470916e-002
      1.48385009e-002 4.13404815e-002 1.74879536e-001 8.35333407e-001
      2.00897649e-001 3.64376783e-001 8.35945427e-001 1.</_>
    <_>
      2.12769255e-001 1.44394577e-001 7.33916610e-002 4.14312966e-002
      1.71718244e-002 4.62551638e-002 1.81717306e-001 7.75386930e-001
      2.21586719e-001 3.36781651e-001 7.56902218e-001 1.</_>
    <_>
      1.02905512e-001 7.44368322e-003 7.02241957e-002 4.96379286e-003
      1.47811100e-002 3.70179415e-002 1.74782753e-001 5.87942421e-001
      4.22801763e-001 4.36372817e-001 5.97486258e-001 1.</_>
    <_>
      2.30332345e-001 7.99245238e-002 4.64421511e-002 5.03721610e-002
      1.27175143e-002 5.22987060e-002 1.60420224e-001 4.22761410e-001
      3.93543214e-001 3.10171694e-001 5.12227714e-001 1.</_>
    <_>
      1.49877310e-001 5.58048859e-002 2.25004330e-002 2.24968195e-002
      1.45834628e-002 4.28517237e-002 1.70652896e-001 5.95564008e-001
      3.20040882e-001 3.77260923e-001 6.22859359e-001 1.</_>
    <_>
      1.61692321e-001 8.90823305e-002 1.96086299e-002 2.14825794e-002
      1.50703387e-002 4.31708917e-002 1.72284737e-001 7.26675391e-001
      2.37036139e-001 4.27847296e-001 7.22343624e-001 1.</_>
    <_>
      1.49877310e-001 5.58048859e-002 2.25004330e-002 2.24968195e-002
      1.45834628e-002 4.28517237e-002 1.70652896e-001 5.95564008e-001
      3.20040882e-001 3.77260923e-001 6.22859359e-001 1.</_></support_vectors>
  <decision_functions>
    <_>
      <sv_count>14</sv_count>
      <rho>-1.3770881175995687e+001</rho>
      <alpha>
        6.8876552029061795e+000 1.1796286019603393e+002
        3.1250000000000000e+002 9.5213890758360318e+000
        2.1990169516876335e+001 6.8947421817400041e+001
        5.9747584437979135e+001 1.2479274984821224e+002
        1.3359720062655050e+001 3.1250000000000000e+002
        -2.9627869839118773e+002 -3.1250000000000000e+002
        -3.1250000000000000e+002 -1.2693085176671131e+002</alpha>
      <index>
        0 1 2 3 4 5 6 7 8 9 10 11 12 13</index></_></decision_functions></my_svm>
</opencv_storage>
