<?xml version="1.0"?>
<opencv_storage>
<my_svm type_id="opencv-ml-svm">
  <svm_type>C_SVC</svm_type>
  <kernel><type>RBF</type>
    <gamma>5.0625000000000009e-001</gamma></kernel>
  <C>6.2500000000000000e+001</C>
  <term_criteria><epsilon>1.1920928955078125e-007</epsilon>
    <iterations>100</iterations></term_criteria>
  <var_all>12</var_all>
  <var_count>12</var_count>
  <class_count>2</class_count>
  <class_labels type_id="opencv-matrix">
    <rows>1</rows>
    <cols>2</cols>
    <dt>i</dt>
    <data>
      -1 1</data></class_labels>
  <sv_total>18</sv_total>
  <support_vectors>
    <_>
      3.50842625e-001 2.27479637e-001 1.51106536e-001 6.29408211e-002
      1.80098265e-002 2.80740447e-002 1.32546470e-001 5.86027622e-001
      2.68531382e-001 3.32812577e-001 5.20278156e-001 1.</_>
    <_>
      1.70919210e-001 2.83017103e-002 4.45131809e-002 5.95447943e-002
      1.45857539e-002 4.76323590e-002 1.50933251e-001 5.68374634e-001
      3.63161027e-001 5.04111350e-001 5.31471968e-001 1.</_>
    <_>
      1.93403870e-001 5.99188730e-002 6.90510273e-002 1.12514347e-001
      2.57344507e-002 6.67431355e-002 1.50025770e-001 3.91580343e-001
      3.52540344e-001 2.32574850e-001 4.94954318e-001 2.50000000e-001</_>
    <_>
      5.97370684e-001 5.37087500e-001 3.09033841e-001 1.38326973e-001
      4.11242284e-002 8.38032812e-002 3.80161256e-002 4.62157100e-001
      6.25455081e-001 5.82533181e-001 3.96739960e-001 5.00000000e-001</_>
    <_>
      8.93845379e-001 8.26009393e-001 3.96871001e-001 2.14789838e-001
      8.34872276e-002 2.24641189e-001 0. 8.05081353e-002 9.54007030e-001
      1.42918050e-001 1.46939695e-001 1.</_>
    <_>
      2.34556735e-001 1.06181942e-001 8.10166597e-002 7.80587317e-003
      1.48626640e-002 3.82088497e-002 1.73808128e-001 5.46249568e-001
      6.36491477e-001 4.71666336e-001 5.51565588e-001 2.50000000e-001</_>
    <_>
      4.22660053e-001 2.16085002e-001 3.07220608e-001 5.82240596e-002
      2.37705447e-002 6.36692718e-002 1.82448208e-001 5.15557766e-001
      4.22191292e-001 4.26611841e-001 3.24723184e-001 3.75000000e-001</_>
    <_>
      1.20232359e-001 2.20219009e-002 8.20193365e-002 5.22439880e-003
      1.46872271e-002 3.64626497e-002 1.75531343e-001 3.13086301e-001
      5.52194893e-001 3.26508909e-001 4.55858171e-001 2.50000000e-001</_>
    <_>
      1.79041266e-001 3.74180339e-002 7.34108388e-002 6.22489974e-002
      1.30430190e-002 4.99815196e-002 1.43897027e-001 3.62134576e-001
      3.29370379e-001 2.53697217e-001 4.24662173e-001 1.</_>
    <_>
      2.49129072e-001 1.34682700e-001 1.00088030e-001 7.06738308e-002
      1.92715768e-002 4.46402952e-002 1.39999241e-001 5.43622792e-001
      2.47503966e-001 3.78532708e-001 4.41813499e-001 2.50000000e-001</_>
    <_>
      2.30332345e-001 7.99245238e-002 4.78630625e-002 5.03721610e-002
      1.27175143e-002 5.22987060e-002 1.60420224e-001 4.22761410e-001
      3.93543214e-001 3.10171694e-001 5.12227714e-001 1.</_>
    <_>
      1.75446182e-001 8.57521966e-002 7.53095150e-002 6.68558106e-003
      1.44960647e-002 3.53201181e-002 1.74349859e-001 3.68369401e-001
      4.99856412e-001 3.36910635e-001 5.10353684e-001 2.50000000e-001</_>
    <_>
      4.48434234e-001 2.00828269e-001 3.65032315e-001 8.43188241e-002
      1.55076450e-002 2.60450859e-002 2.88935125e-001 3.29818904e-001
      5.93348265e-001 3.66793722e-001 2.24656835e-001 3.75000000e-001</_>
    <_>
      2.91287422e-001 1.48839086e-001 4.98852096e-002 4.46840972e-002
      1.42749147e-002 5.54464348e-002 1.58530578e-001 4.67078745e-001
      3.88750702e-001 3.18709910e-001 4.52649444e-001 2.50000000e-001</_>
    <_>
      3.51992399e-001 2.08719358e-001 7.13035390e-002 5.10024242e-002
      1.68040749e-002 6.19979650e-002 1.55414268e-001 5.48343122e-001
      3.81489992e-001 3.08857679e-001 4.81445938e-001 1.</_>
    <_>
      3.61327529e-001 1.93689764e-001 1.30523965e-001 2.60906871e-002
      1.60879586e-002 4.60961014e-002 1.67407840e-001 5.39207041e-001
      4.24805582e-001 2.62863487e-001 4.26049560e-001 2.50000000e-001</_>
    <_>
      3.31755787e-001 1.50735661e-001 1.20587803e-001 6.36964664e-002
      1.79862343e-002 6.28367886e-002 1.37366682e-001 3.95375371e-001
      4.07256842e-001 2.90615618e-001 3.57572138e-001 2.50000000e-001</_>
    <_>
      2.14179754e-001 3.00259385e-002 7.24975318e-002 5.56166694e-002
      1.21424971e-002 4.36227284e-002 1.52932659e-001 5.00484109e-001
      3.89282227e-001 4.31684285e-001 3.64391387e-001 1.</_></support_vectors>
  <decision_functions>
    <_>
      <sv_count>18</sv_count>
      <rho>-3.5211238032961387e+000</rho>
      <alpha>
        3.6259343898249220e+001 1.7198208534474839e+000
        3.1875929107916246e+001 1.3663489198102967e+000
        7.6543824920227954e-001 1.9837828745259685e+001
        3.0692749195962612e+001 1.0298274688882536e+000
        1.4453122489287132e+001 4.5833287422964311e+001
        6.2500000000000000e+001 3.1594190415708656e+000
        1.5084286436594178e+001 -6.2500000000000000e+001
        -6.2500000000000000e+001 -2.4211423427755740e+001
        -5.2865978401396816e+001 -6.2500000000000000e+001</alpha>
      <index>
        0 1 2 3 4 5 6 7 8 9 10 11 12 13 14 15 16 17</index></_></decision_functions></my_svm>
</opencv_storage>
