<?xml version="1.0"?>
<opencv_storage>
<my_svm type_id="opencv-ml-svm">
  <svm_type>C_SVC</svm_type>
  <kernel><type>RBF</type>
    <gamma>5.0625000000000009e-001</gamma></kernel>
  <C>3.1250000000000000e+002</C>
  <term_criteria><epsilon>1.1920928955078125e-007</epsilon>
    <iterations>100</iterations></term_criteria>
  <var_all>12</var_all>
  <var_count>12</var_count>
  <class_count>2</class_count>
  <class_labels type_id="opencv-matrix">
    <rows>1</rows>
    <cols>2</cols>
    <dt>i</dt>
    <data>
      -1 1</data></class_labels>
  <sv_total>12</sv_total>
  <support_vectors>
    <_>
      1.72352314e-001 2.94524599e-002 3.14535707e-001 6.54331446e-002
      2.19139438e-002 4.42696996e-002 2.29557067e-001 5.74153900e-001
      2.83151865e-001 3.28635901e-001 5.09422779e-001 1.</_>
    <_>
      1.61692321e-001 8.90823305e-002 2.10695211e-002 2.14825794e-002
      1.50703387e-002 4.31708917e-002 1.72284737e-001 7.26675391e-001
      2.37036139e-001 4.27847296e-001 7.22343624e-001 1.</_>
    <_>
      1.29662916e-001 7.99301118e-002 1.85850859e-002 1.70231033e-002
      1.49932764e-002 4.18393686e-002 1.73652336e-001 7.79488385e-001
      1.49346933e-001 4.91104186e-001 7.97137141e-001 1.</_>
    <_>
      2.96555668e-001 2.37181351e-001 3.82190570e-002 7.75568001e-003
      1.46481153e-002 3.69664133e-002 1.75724253e-001 6.61233962e-001
      1.86844677e-001 3.00228834e-001 7.59709835e-001 1.</_>
    <_>
      1.09471127e-001 3.10448725e-002 4.39386182e-002 2.22076569e-002
      1.47498483e-002 3.94792445e-002 1.80052608e-001 5.46949446e-001
      2.39304185e-001 4.04553354e-001 6.54574811e-001 1.</_>
    <_>
      1.65347502e-001 1.07685938e-001 6.50496036e-003 7.57267606e-003
      1.46978013e-002 3.96532267e-002 1.74304649e-001 7.42116570e-001
      2.41080597e-001 4.23785985e-001 7.68571138e-001 1.</_>
    <_>
      2.60299772e-001 2.01011613e-001 1.04859479e-001 5.33659980e-002
      1.90378074e-002 6.02220297e-002 1.63155720e-001 8.76092076e-001
      2.22376823e-001 1.88624948e-001 8.21939766e-001 6.25000000e-001</_>
    <_>
      1.52498335e-001 4.64300103e-002 2.10930005e-001 5.67923822e-002
      1.98899005e-002 4.42913808e-002 2.08438396e-001 5.59801340e-001
      2.26164654e-001 4.04651493e-001 5.69524348e-001 1.</_>
    <_>
      1.02801971e-001 5.45646176e-002 5.25496043e-002 2.62197554e-002
      1.58107746e-002 4.23910655e-002 1.75673619e-001 7.71858990e-001
      1.67257220e-001 3.90720516e-001 7.43395209e-001 1.</_>
    <_>
      2.12769255e-001 1.44394577e-001 7.47724101e-002 4.14312966e-002
      1.71718244e-002 4.62551638e-002 1.81717306e-001 7.75386930e-001
      2.21586719e-001 3.36781651e-001 7.56902218e-001 1.</_>
    <_>
      2.30565846e-001 1.43631786e-001 1.84854716e-001 1.09574944e-001
      3.25061008e-002 6.99930936e-002 2.03333616e-001 8.09875965e-001
      2.06184655e-001 4.07428175e-001 6.45141006e-001 1.</_>
    <_>
      1.40553430e-001 6.65453151e-002 8.60977992e-002 6.62985519e-002
      2.05599423e-002 5.54202534e-002 1.71943650e-001 5.87973773e-001
      2.13772148e-001 4.22533005e-001 7.11339712e-001 1.</_></support_vectors>
  <decision_functions>
    <_>
      <sv_count>12</sv_count>
      <rho>-1.1161067139759485e+001</rho>
      <alpha>
        8.1141873965155199e+001 2.1099190393320592e+002
        2.2829283677241290e+002 9.8233978965609708e+001
        3.6546708158936937e+001 1.3691738671926419e+001
        2.5002593086868391e+001 7.6661344885256980e+001
        -1.8391470874258945e+002 -2.0914345976221921e+002
        -6.5004809934563895e+001 -3.1250000000000000e+002</alpha>
      <index>
        0 1 2 3 4 5 6 7 8 9 10 11</index></_></decision_functions></my_svm>
</opencv_storage>
