<?xml version="1.0"?>
<opencv_storage>
<my_svm type_id="opencv-ml-svm">
  <svm_type>C_SVC</svm_type>
  <kernel><type>RBF</type>
    <gamma>5.0625000000000009e-001</gamma></kernel>
  <C>6.2500000000000000e+001</C>
  <term_criteria><epsilon>1.1920928955078125e-007</epsilon>
    <iterations>100</iterations></term_criteria>
  <var_all>12</var_all>
  <var_count>12</var_count>
  <class_count>2</class_count>
  <class_labels type_id="opencv-matrix">
    <rows>1</rows>
    <cols>2</cols>
    <dt>i</dt>
    <data>
      -1 1</data></class_labels>
  <sv_total>13</sv_total>
  <support_vectors>
    <_>
      8.10130537e-002 6.30837679e-002 1.65381804e-002 3.71978641e-003
      1.47005189e-002 3.77010927e-002 1.74572244e-001 9.25410092e-001
      6.55210912e-002 8.71307194e-001 9.49247956e-001 3.75000000e-001</_>
    <_>
      4.44420688e-002 2.67952178e-002 4.02151197e-002 3.15956702e-003
      1.47115476e-002 3.77125517e-002 1.74615592e-001 1. 2.72918828e-002
      6.94516420e-001 9.00897980e-001 1.</_>
    <_>
      7.82534108e-002 1.46952374e-002 3.88552509e-002 1.44093519e-003
      1.46717681e-002 3.72355804e-002 1.74592704e-001 5.87097228e-001
      3.01127613e-001 8.05811822e-001 6.31125331e-001 5.00000000e-001</_>
    <_>
      7.68866315e-002 3.72323468e-002 0. 5.90263633e-003 1.46722253e-002
      3.80931571e-002 1.74720466e-001 7.74441004e-001 1.67619184e-001
      6.30198538e-001 8.09225261e-001 3.75000000e-001</_>
    <_>
      3.41129825e-002 3.25868651e-002 8.36018287e-003 9.53047595e-004
      1.46712391e-002 3.72583196e-002 1.74663454e-001 9.70038652e-001
      2.89883893e-002 9.33035672e-001 9.87605274e-001 2.50000000e-001</_>
    <_>
      2.05026567e-001 1.22671664e-001 1.99413434e-001 1.08741477e-001
      3.32939923e-002 7.62370005e-002 1.55405059e-001 8.96229863e-001
      1.50753081e-001 6.92258894e-001 7.55959392e-001 2.50000000e-001</_>
    <_>
      1.36953657e-002 1.31305689e-002 1.82961556e-003 1.52957567e-004
      1.46688242e-002 3.71260978e-002 1.74681351e-001 9.38125074e-001
      2.62870789e-002 6.31006658e-001 9.85860109e-001 2.50000000e-001</_>
    <_>
      7.54937232e-002 5.11762127e-002 2.87010595e-002 3.17849708e-003
      1.46321980e-002 3.64163518e-002 1.74724996e-001 9.17104661e-001
      3.67036052e-002 8.30073178e-001 9.00892913e-001 3.75000000e-001</_>
    <_>
      6.29703477e-002 2.79367641e-002 2.46768929e-002 6.77121710e-003
      1.47608481e-002 3.79873216e-002 1.74344569e-001 7.71254659e-001
      1.62943482e-001 7.75544167e-001 8.49762201e-001 3.75000000e-001</_>
    <_>
      3.30635011e-002 7.21714040e-003 3.29985991e-002 5.73796360e-003
      1.47540504e-002 3.75447869e-002 1.74401075e-001 9.29917812e-001
      6.50122687e-002 9.20406520e-001 8.20784926e-001 3.75000000e-001</_>
    <_>
      3.30635011e-002 7.21714040e-003 3.29985991e-002 5.73796360e-003
      1.47540504e-002 3.75447869e-002 1.74401075e-001 9.29917812e-001
      6.50122687e-002 9.20406520e-001 8.20784926e-001 3.75000000e-001</_>
    <_>
      6.11787550e-002 2.94317435e-002 3.46776508e-002 2.29644356e-003
      1.46547779e-002 3.67108062e-002 1.74542382e-001 8.49588275e-001
      1.18303008e-001 7.10686147e-001 8.23874831e-001 3.75000000e-001</_>
    <_>
      6.11787550e-002 2.94317435e-002 3.46776508e-002 2.29644356e-003
      1.46547779e-002 3.67108062e-002 1.74542382e-001 8.49588275e-001
      1.18303008e-001 7.10686147e-001 8.23874831e-001 3.75000000e-001</_></support_vectors>
  <decision_functions>
    <_>
      <sv_count>13</sv_count>
      <rho>-6.9816976859596620e+000</rho>
      <alpha>
        5.9202078224569952e+001 2.2387085443489942e+000
        4.6613225804671579e+001 6.2500000000000000e+001
        4.1701280795923083e+001 1.1557274021341584e+001
        5.8335203293344948e+000 6.2500000000000000e+001
        -6.2500000000000000e+001 -6.1612939827626441e+001
        -4.3033147892563264e+001 -6.2500000000000000e+001
        -6.2500000000000000e+001</alpha>
      <index>
        0 1 2 3 4 5 6 7 8 9 10 11 12</index></_></decision_functions></my_svm>
</opencv_storage>
