<?xml version="1.0"?>
<opencv_storage>
<my_svm type_id="opencv-ml-svm">
  <svm_type>C_SVC</svm_type>
  <kernel><type>RBF</type>
    <gamma>5.0625000000000009e-001</gamma></kernel>
  <C>6.2500000000000000e+001</C>
  <term_criteria><epsilon>1.1920928955078125e-007</epsilon>
    <iterations>100</iterations></term_criteria>
  <var_all>12</var_all>
  <var_count>12</var_count>
  <class_count>2</class_count>
  <class_labels type_id="opencv-matrix">
    <rows>1</rows>
    <cols>2</cols>
    <dt>i</dt>
    <data>
      -1 1</data></class_labels>
  <sv_total>16</sv_total>
  <support_vectors>
    <_>
      2.44255751e-001 2.01524064e-001 5.09206392e-002 4.61316407e-002
      1.73008125e-002 5.81059121e-002 1.73313990e-001 8.71544421e-001
      1.56966180e-001 9.24708843e-001 8.86175752e-001 2.50000000e-001</_>
    <_>
      1.44389018e-001 8.59813690e-002 1.07507594e-002 2.03906465e-003
      1.46624520e-002 3.77834961e-002 1.74615562e-001 6.85587585e-001
      4.78509843e-001 6.85661972e-001 7.76048362e-001 2.50000000e-001</_>
    <_>
      7.21575990e-002 1.27771199e-002 8.08174349e-003 9.00007784e-003
      1.45948697e-002 3.78199480e-002 1.75045356e-001 5.18533945e-001
      2.66768366e-001 6.16347909e-001 6.11758411e-001 1.</_>
    <_>
      3.84853899e-001 2.96617776e-001 1.56799406e-001 2.12050900e-002
      1.32551221e-002 2.48599295e-002 1.76716760e-001 5.20502388e-001
      3.63288343e-001 5.52329242e-001 5.97867370e-001 5.00000000e-001</_>
    <_>
      5.97370684e-001 5.37087500e-001 3.09033841e-001 1.38326973e-001
      4.11242284e-002 8.38032812e-002 3.80161256e-002 4.62157100e-001
      6.25455081e-001 5.82533181e-001 3.96739960e-001 5.00000000e-001</_>
    <_>
      1.85802892e-001 1.03855535e-001 3.13871750e-003 1.89883802e-002
      1.45294312e-002 4.36560437e-002 1.73960254e-001 6.62411213e-001
      3.09955686e-001 6.94705963e-001 6.91882074e-001 2.50000000e-001</_>
    <_>
      9.28847417e-002 7.29830638e-002 8.31667706e-003 4.44607140e-004
      1.46679487e-002 3.70234586e-002 1.74676508e-001 8.93045962e-001
      5.55242859e-002 9.28468287e-001 9.31425333e-001 1.</_>
    <_>
      2.28837103e-001 1.42053574e-001 1.39297824e-002 6.54690387e-003
      1.45971589e-002 3.98089848e-002 1.74530312e-001 5.66992939e-001
      3.54454219e-001 6.47487283e-001 6.42184138e-001 3.75000000e-001</_>
    <_>
      1.04102038e-001 1.68394868e-003 3.85114774e-002 2.21766508e-003
      1.46569218e-002 3.71839590e-002 1.74533606e-001 4.05221373e-001
      7.17161179e-001 7.44986176e-001 4.87762511e-001 5.00000000e-001</_>
    <_>
      5.60805082e-001 5.59402585e-001 2.22997636e-001 2.42321104e-001
      8.04653689e-002 2.16855273e-001 2.27095231e-001 8.39755833e-001
      3.05208802e-001 5.86800158e-001 7.60404944e-001 2.50000000e-001</_>
    <_>
      1.40639275e-001 5.44905802e-003 5.23978062e-002 0. 1.46688307e-002
      3.71559039e-002 1.74683556e-001 5.53339958e-001 8.00442815e-001
      7.64499664e-001 5.08435369e-001 3.75000000e-001</_>
    <_>
      1.86632216e-001 1.03533387e-001 2.26467792e-002 4.98503000e-002
      1.66489631e-002 5.43817915e-002 1.75085306e-001 5.51710010e-001
      3.46545339e-001 6.56760812e-001 6.29048526e-001 3.75000000e-001</_>
    <_>
      2.74078131e-001 1.97691709e-001 1.13348849e-002 4.97821607e-002
      1.60705373e-002 6.05785102e-002 1.75119430e-001 5.64021945e-001
      4.04640317e-001 6.14922583e-001 6.32766008e-001 2.50000000e-001</_>
    <_>
      3.00940603e-001 2.15854168e-001 2.24058423e-002 5.99921420e-002
      1.71724688e-002 6.63081780e-002 1.70070231e-001 5.90720236e-001
      4.44079071e-001 6.56662226e-001 6.71473980e-001 3.75000000e-001</_>
    <_>
      1.81631535e-001 1.29372358e-001 5.46213426e-003 1.76549759e-002
      1.48760751e-002 4.38998416e-002 1.74543530e-001 6.83177948e-001
      2.97449470e-001 8.01219165e-001 7.31770039e-001 1.</_>
    <_>
      3.07475090e-001 2.48636067e-001 2.49187071e-002 3.92120220e-002
      1.61192492e-002 5.63850068e-002 1.74693376e-001 6.83250606e-001
      3.85868609e-001 7.73475111e-001 7.60272801e-001 2.50000000e-001</_></support_vectors>
  <decision_functions>
    <_>
      <sv_count>16</sv_count>
      <rho>-5.6717158834138157e+000</rho>
      <alpha>
        6.0425700470206207e+000 3.0740765544245278e+001
        1.1107464856618195e+001 4.9229618038566009e+001
        2.7311090541179878e-001 5.8212090857633058e+001
        1.4540181433579326e+001 6.2500000000000000e+001
        1.1226312119749041e+001 1.3027561988696442e+001
        6.5316489615548008e+000 -6.2500000000000000e+001
        -6.2500000000000000e+001 -4.3072107178742208e+001
        -4.3422841222797501e+001 -5.1936376351534875e+001</alpha>
      <index>
        0 1 2 3 4 5 6 7 8 9 10 11 12 13 14 15</index></_></decision_functions></my_svm>
</opencv_storage>
