<?xml version="1.0"?>
<opencv_storage>
<my_svm type_id="opencv-ml-svm">
  <svm_type>C_SVC</svm_type>
  <kernel><type>RBF</type>
    <gamma>5.0625000000000009e-001</gamma></kernel>
  <C>3.1250000000000000e+002</C>
  <term_criteria><epsilon>1.1920928955078125e-007</epsilon>
    <iterations>100</iterations></term_criteria>
  <var_all>12</var_all>
  <var_count>12</var_count>
  <class_count>2</class_count>
  <class_labels type_id="opencv-matrix">
    <rows>1</rows>
    <cols>2</cols>
    <dt>i</dt>
    <data>
      -1 1</data></class_labels>
  <sv_total>12</sv_total>
  <support_vectors>
    <_>
      7.68866315e-002 3.72323468e-002 0. 5.90263633e-003 1.46722253e-002
      3.80931571e-002 1.74720466e-001 7.74441004e-001 1.67619184e-001
      6.30198538e-001 8.09225261e-001 3.75000000e-001</_>
    <_>
      1.51468158e-001 8.23822469e-002 1.74652487e-002 1.81710697e-003
      1.46717131e-002 3.67806703e-002 1.74765751e-001 5.63518107e-001
      5.63559294e-001 5.11779904e-001 7.32199669e-001 3.75000000e-001</_>
    <_>
      1.25812784e-001 5.19452468e-002 6.36931285e-002 3.06171039e-003
      1.46547137e-002 3.73609625e-002 1.74349889e-001 4.03622895e-001
      4.81756598e-001 5.00989318e-001 5.34906507e-001 1.</_>
    <_>
      1.40553430e-001 6.65453151e-002 8.60977992e-002 6.62985519e-002
      2.05599423e-002 5.54202534e-002 1.71943650e-001 5.87973773e-001
      2.13772148e-001 4.22533005e-001 7.11339712e-001 1.</_>
    <_>
      1.94024459e-001 1.35401130e-001 1.07445347e-003 1.15346536e-002
      1.47205172e-002 4.11050245e-002 1.74680308e-001 6.63705349e-001
      3.04960370e-001 3.09749365e-001 7.45320320e-001 2.50000000e-001</_>
    <_>
      1.13518484e-001 7.90240336e-003 2.61243861e-002 2.56548245e-002
      1.39525272e-002 3.86314206e-002 1.72540769e-001 4.27198797e-001
      2.85885632e-001 3.56816351e-001 5.30839324e-001 2.50000000e-001</_>
    <_>
      1.60430789e-001 5.82246147e-002 2.55398098e-002 4.45892699e-002
      1.60839055e-002 4.83315215e-002 1.81767777e-001 4.85871881e-001
      2.60934263e-001 3.99724215e-001 6.07187867e-001 1.</_>
    <_>
      1.53861046e-001 9.41723511e-002 6.70404267e-003 3.55394767e-003
      1.46861468e-002 3.68240774e-002 1.74766257e-001 6.10278904e-001
      2.42001921e-001 5.67313850e-001 7.11296022e-001 2.50000000e-001</_>
    <_>
      1.60421476e-001 8.35095122e-002 4.42565754e-002 4.75219777e-003
      1.45859253e-002 3.61490026e-002 1.74624294e-001 3.36512089e-001
      4.57622528e-001 4.47888583e-001 5.37926137e-001 2.50000000e-001</_>
    <_>
      1.41907483e-001 7.77834728e-002 3.67194414e-002 1.80240311e-002
      1.52193094e-002 4.15338092e-002 1.74652562e-001 5.20211577e-001
      3.08388054e-001 3.48917395e-001 7.26275027e-001 2.50000000e-001</_>
    <_>
      1.50121823e-001 6.80160299e-002 5.03093079e-002 2.62241475e-002
      1.56764332e-002 4.41041663e-002 1.78002819e-001 4.03619826e-001
      4.17471915e-001 4.34439927e-001 6.36444807e-001 1.</_>
    <_>
      1.17073491e-001 5.75410351e-002 3.82475113e-003 4.43592435e-003
      1.46463970e-002 3.83113250e-002 1.74678221e-001 4.41557884e-001
      3.70166749e-001 4.97624278e-001 6.59823656e-001 2.50000000e-001</_></support_vectors>
  <decision_functions>
    <_>
      <sv_count>12</sv_count>
      <rho>-3.7822464101352371e+000</rho>
      <alpha>
        4.5778806732003048e+000 5.1894233680256832e+001
        8.4086242219349415e+001 7.5575464080334207e+000
        1.0860980215979149e+001 2.0709329960426022e+001
        8.4147138079579634e+001 3.3200013964145334e+001
        7.8636569804865516e+001 -2.6777417942161833e+001
        -1.8485582817403483e+002 -1.6403668888963895e+002</alpha>
      <index>
        0 1 2 3 4 5 6 7 8 9 10 11</index></_></decision_functions></my_svm>
</opencv_storage>
