<?xml version="1.0"?>
<opencv_storage>
<my_svm type_id="opencv-ml-svm">
  <svm_type>C_SVC</svm_type>
  <kernel><type>RBF</type>
    <gamma>5.0625000000000009e-001</gamma></kernel>
  <C>6.2500000000000000e+001</C>
  <term_criteria><epsilon>1.1920928955078125e-007</epsilon>
    <iterations>100</iterations></term_criteria>
  <var_all>12</var_all>
  <var_count>12</var_count>
  <class_count>2</class_count>
  <class_labels type_id="opencv-matrix">
    <rows>1</rows>
    <cols>2</cols>
    <dt>i</dt>
    <data>
      -1 1</data></class_labels>
  <sv_total>11</sv_total>
  <support_vectors>
    <_>
      3.94590944e-001 3.37862521e-001 9.28458348e-002 3.14263478e-002
      1.52321104e-002 3.01550124e-002 1.62041917e-001 8.04697454e-001
      2.26886570e-001 2.77252167e-001 7.33675539e-001 2.50000000e-001</_>
    <_>
      3.45743924e-001 2.80053705e-001 2.13534176e-001 2.08318383e-001
      6.61015958e-002 1.51284799e-001 2.09308654e-001 8.26391160e-001
      2.16399789e-001 4.57328975e-001 7.28595495e-001 2.50000000e-001</_>
    <_>
      3.80630493e-001 2.90947348e-001 1.72709763e-001 2.51720734e-002
      1.34216724e-002 2.56025251e-002 1.64733469e-001 5.59401870e-001
      3.18871826e-001 5.09007156e-001 5.22885621e-001 5.00000000e-001</_>
    <_>
      2.30565846e-001 1.43631786e-001 1.84854716e-001 1.09574944e-001
      3.25061008e-002 6.99930936e-002 2.03333616e-001 8.09875965e-001
      2.06184655e-001 4.07428175e-001 6.45141006e-001 1.</_>
    <_>
      3.87184411e-001 3.62836450e-001 4.45753895e-003 7.49954605e-004
      1.46674262e-002 3.66105288e-002 1.74674436e-001 8.18800688e-001
      1.71714202e-001 3.05408865e-001 8.74624252e-001 1.</_>
    <_>
      1.67113185e-001 9.17649642e-002 1.08631678e-001 3.22464705e-002
      1.61078125e-002 3.99291888e-002 1.63284823e-001 6.12548947e-001
      1.78301692e-001 5.95900357e-001 6.94801867e-001 3.75000000e-001</_>
    <_>
      2.12769255e-001 1.44394577e-001 7.47724101e-002 4.14312966e-002
      1.71718244e-002 4.62551638e-002 1.81717306e-001 7.75386930e-001
      2.21586719e-001 3.36781651e-001 7.56902218e-001 1.</_>
    <_>
      1.59893006e-001 1.27122298e-001 2.74930708e-003 4.96797822e-003
      1.46908062e-002 3.90706435e-002 1.74639896e-001 8.65548670e-001
      1.31330952e-001 4.54674065e-001 9.17826891e-001 2.50000000e-001</_>
    <_>
      2.23785758e-001 1.81166515e-001 5.72604947e-002 2.87064165e-002
      1.60070024e-002 4.91492487e-002 1.72560439e-001 8.16039383e-001
      1.66390851e-001 3.49300802e-001 8.48846138e-001 6.25000000e-001</_>
    <_>
      2.03744486e-001 1.44880116e-001 1.09456606e-001 7.11662695e-002
      2.17778590e-002 6.30676895e-002 1.61116526e-001 8.56759250e-001
      1.88181669e-001 3.18072706e-001 7.70958126e-001 6.25000000e-001</_>
    <_>
      3.65120977e-001 2.95839787e-001 2.17019841e-001 2.05309063e-001
      6.56046495e-002 1.55519828e-001 1.91157982e-001 7.49313891e-001
      2.29913130e-001 4.22889382e-001 6.89988554e-001 6.25000000e-001</_></support_vectors>
  <decision_functions>
    <_>
      <sv_count>11</sv_count>
      <rho>-8.0795398708235275e+000</rho>
      <alpha>
        7.9323189217109134e+000 3.6865724175562285e+001
        3.9071522684835314e+000 1.1647722449664506e+001
        1.3769826169251925e+001 3.0810528683146998e+000
        3.5455671331986821e+001 1.3795103778495594e+001
        -6.2500000000000000e+001 -1.3367908154435094e+001
        -5.0586663809035144e+001</alpha>
      <index>
        0 1 2 3 4 5 6 7 8 9 10</index></_></decision_functions></my_svm>
</opencv_storage>
