<?xml version="1.0"?>
<opencv_storage>
<my_svm type_id="opencv-ml-svm">
  <svm_type>C_SVC</svm_type>
  <kernel><type>RBF</type>
    <gamma>5.0625000000000009e-001</gamma></kernel>
  <C>6.2500000000000000e+001</C>
  <term_criteria><epsilon>1.1920928955078125e-007</epsilon>
    <iterations>100</iterations></term_criteria>
  <var_all>12</var_all>
  <var_count>12</var_count>
  <class_count>2</class_count>
  <class_labels type_id="opencv-matrix">
    <rows>1</rows>
    <cols>2</cols>
    <dt>i</dt>
    <data>
      -1 1</data></class_labels>
  <sv_total>19</sv_total>
  <support_vectors>
    <_>
      4.38069999e-001 2.68873215e-001 4.95065212e-001 7.26700127e-002 0.
      0. 1.28981799e-001 4.14789200e-001 3.63921136e-001 3.43073934e-001
      3.20280343e-001 5.00000000e-001</_>
    <_>
      3.51992399e-001 2.08719358e-001 7.13035390e-002 5.10024242e-002
      1.68040749e-002 6.19979650e-002 1.55414268e-001 5.48343122e-001
      3.81489992e-001 3.08857679e-001 4.81445938e-001 1.</_>
    <_>
      3.04277003e-001 2.44198233e-001 8.67333487e-002 7.83971176e-002
      2.22818237e-002 7.53147155e-002 1.72603101e-001 8.37678015e-001
      1.98597237e-001 5.51971555e-001 8.03203404e-001 2.50000000e-001</_>
    <_>
      3.61327529e-001 1.93689764e-001 1.30523965e-001 2.60906871e-002
      1.60879586e-002 4.60961014e-002 1.67407840e-001 5.39207041e-001
      4.24805582e-001 2.62863487e-001 4.26049560e-001 2.50000000e-001</_>
    <_>
      2.91287422e-001 1.48839086e-001 4.98852096e-002 4.46840972e-002
      1.42749147e-002 5.54464348e-002 1.58530578e-001 4.67078745e-001
      3.88750702e-001 3.18709910e-001 4.52649444e-001 2.50000000e-001</_>
    <_>
      3.45743924e-001 2.80053705e-001 2.13534176e-001 2.08318383e-001
      6.61015958e-002 1.51284799e-001 2.09308654e-001 8.26391160e-001
      2.16399789e-001 4.57328975e-001 7.28595495e-001 2.50000000e-001</_>
    <_>
      1.30499750e-001 4.39500762e-003 1.08937807e-001 4.11694311e-002
      1.31736416e-002 4.01367284e-002 1.55705810e-001 3.95519286e-001
      3.09457093e-001 2.90445864e-001 4.66092914e-001 0.</_>
    <_>
      3.80630493e-001 2.90947348e-001 1.72709763e-001 2.51720734e-002
      1.34216724e-002 2.56025251e-002 1.64733469e-001 5.59401870e-001
      3.18871826e-001 5.09007156e-001 5.22885621e-001 5.00000000e-001</_>
    <_>
      1.71749368e-001 7.97684714e-002 1.49815856e-002 3.36068049e-002
      1.55413160e-002 4.73576412e-002 1.73382819e-001 6.01395845e-001
      3.02334726e-001 3.44496012e-001 6.13902211e-001 2.50000000e-001</_>
    <_>
      2.96555668e-001 2.37181351e-001 3.82190570e-002 7.75568001e-003
      1.46481153e-002 3.69664133e-002 1.75724253e-001 6.61233962e-001
      1.86844677e-001 3.00228834e-001 7.59709835e-001 1.</_>
    <_>
      2.03744486e-001 1.44880116e-001 1.09456606e-001 7.11662695e-002
      2.17778590e-002 6.30676895e-002 1.61116526e-001 8.56759250e-001
      1.88181669e-001 3.18072706e-001 7.70958126e-001 6.25000000e-001</_>
    <_>
      1.31763592e-001 5.89894876e-003 1.65917009e-001 2.52108090e-002
      1.41218156e-002 3.50289382e-002 1.86820939e-001 4.81135160e-001
      2.31120884e-001 4.07274723e-001 4.58096266e-001 1.</_>
    <_>
      2.60299772e-001 2.01011613e-001 1.04859479e-001 5.33659980e-002
      1.90378074e-002 6.02220297e-002 1.63155720e-001 8.76092076e-001
      2.22376823e-001 1.88624948e-001 8.21939766e-001 6.25000000e-001</_>
    <_>
      1.59893006e-001 1.27122298e-001 2.74930708e-003 4.96797822e-003
      1.46908062e-002 3.90706435e-002 1.74639896e-001 8.65548670e-001
      1.31330952e-001 4.54674065e-001 9.17826891e-001 2.50000000e-001</_>
    <_>
      3.94590944e-001 3.37862521e-001 9.28458348e-002 3.14263478e-002
      1.52321104e-002 3.01550124e-002 1.62041917e-001 8.04697454e-001
      2.26886570e-001 2.77252167e-001 7.33675539e-001 2.50000000e-001</_>
    <_>
      2.63331383e-001 1.62050322e-001 9.37726870e-002 3.59154493e-002
      1.57013647e-002 3.42176780e-002 1.60010800e-001 5.23133039e-001
      2.32315928e-001 4.56018984e-001 5.40079355e-001 1.</_>
    <_>
      3.68997931e-001 2.42369011e-001 1.85312167e-001 5.25396131e-002
      1.22522507e-002 1.47154974e-002 1.37818009e-001 6.62714660e-001
      2.47759491e-001 3.82506192e-001 5.71052372e-001 2.50000000e-001</_>
    <_>
      2.49129072e-001 1.34682700e-001 1.00088030e-001 7.06738308e-002
      1.92715768e-002 4.46402952e-002 1.39999241e-001 5.43622792e-001
      2.47503966e-001 3.78532708e-001 4.41813499e-001 2.50000000e-001</_>
    <_>
      3.50842625e-001 2.27479637e-001 1.51106536e-001 6.29408211e-002
      1.80098265e-002 2.80740447e-002 1.32546470e-001 5.86027622e-001
      2.68531382e-001 3.32812577e-001 5.20278156e-001 1.</_></support_vectors>
  <decision_functions>
    <_>
      <sv_count>19</sv_count>
      <rho>-3.7684023467810035e+000</rho>
      <alpha>
        4.5346325870518358e+000 3.4971706902959532e+001
        9.3015088332999021e+000 2.4470634305433947e+001
        6.2884855912591338e+000 2.3916802540252181e+001
        1.6782648711561269e+001 6.2500000000000000e+001
        4.2847011911048316e+000 3.4844652602959044e+001
        6.0741072908895699e+000 3.3262282939205335e+001
        4.1844009131749473e+000 1.7753658493475752e+000
        -3.4132407218829215e+001 -6.2500000000000000e+001
        -4.5559523039669912e+001 -6.2500000000000000e+001
        -6.2500000000000000e+001</alpha>
      <index>
        0 1 2 3 4 5 6 7 8 9 10 11 12 13 14 15 16 17 18</index></_></decision_functions></my_svm>
</opencv_storage>
