<?xml version="1.0"?>
<opencv_storage>
<my_svm type_id="opencv-ml-svm">
  <svm_type>C_SVC</svm_type>
  <kernel><type>RBF</type>
    <gamma>5.0625000000000009e-001</gamma></kernel>
  <C>1.2500000000000000e+001</C>
  <term_criteria><epsilon>1.1920928955078125e-007</epsilon>
    <iterations>100</iterations></term_criteria>
  <var_all>12</var_all>
  <var_count>12</var_count>
  <class_count>2</class_count>
  <class_labels type_id="opencv-matrix">
    <rows>1</rows>
    <cols>2</cols>
    <dt>i</dt>
    <data>
      -1 1</data></class_labels>
  <sv_total>13</sv_total>
  <support_vectors>
    <_>
      3.61327529e-001 1.93689764e-001 1.30523965e-001 2.60906871e-002
      1.60879586e-002 4.60961014e-002 1.67407840e-001 5.39207041e-001
      4.24805582e-001 2.62863487e-001 4.26049560e-001 2.50000000e-001</_>
    <_>
      8.41293633e-001 6.71302855e-001 8.18807960e-001 5.36997080e-001
      4.32237953e-001 5.08470356e-001 3.80338281e-001 8.79820287e-002
      9.01317894e-001 1.15380250e-001 8.43236893e-002 1.</_>
    <_>
      9.48549211e-001 7.07459688e-001 8.06603551e-001 2.29693502e-001
      1.30913734e-001 2.44099081e-001 1.50033414e-001 0. 8.50328207e-001
      0. 0. 1.</_>
    <_>
      1.77522644e-001 2.88892426e-002 1.39020652e-001 6.42502680e-002
      2.17631515e-002 4.88440096e-002 1.80916801e-001 3.26721787e-001
      5.20352960e-001 4.13121760e-001 4.20937002e-001 1.</_>
    <_>
      4.38069999e-001 2.68873215e-001 4.95065212e-001 7.26700127e-002 0.
      0. 1.28981799e-001 4.14789200e-001 3.63921136e-001 3.43073934e-001
      3.20280343e-001 5.00000000e-001</_>
    <_>
      5.97370684e-001 5.37087500e-001 3.09033841e-001 1.38326973e-001
      4.11242284e-002 8.38032812e-002 3.80161256e-002 4.62157100e-001
      6.25455081e-001 5.82533181e-001 3.96739960e-001 5.00000000e-001</_>
    <_>
      3.31755787e-001 1.50735661e-001 1.20587803e-001 6.36964664e-002
      1.79862343e-002 6.28367886e-002 1.37366682e-001 3.95375371e-001
      4.07256842e-001 2.90615618e-001 3.57572138e-001 2.50000000e-001</_>
    <_>
      3.83639723e-001 2.29764223e-001 3.95519614e-001 5.95385097e-002
      4.05452866e-003 6.54296903e-003 1.62809610e-001 5.35607219e-001
      4.05209839e-001 5.51547408e-001 4.60808009e-001 3.75000000e-001</_>
    <_>
      4.22660053e-001 2.16085002e-001 3.07220608e-001 5.82240596e-002
      2.37705447e-002 6.36692718e-002 1.82448208e-001 5.15557766e-001
      4.22191292e-001 4.26611841e-001 3.24723184e-001 3.75000000e-001</_>
    <_>
      4.48434234e-001 2.00828269e-001 3.65032315e-001 8.43188241e-002
      1.55076450e-002 2.60450859e-002 2.88935125e-001 3.29818904e-001
      5.93348265e-001 3.66793722e-001 2.24656835e-001 3.75000000e-001</_>
    <_>
      4.48434234e-001 2.00828269e-001 3.65032315e-001 8.43188241e-002
      1.55076450e-002 2.60450859e-002 2.88935125e-001 3.29818904e-001
      5.93348265e-001 3.66793722e-001 2.24656835e-001 3.75000000e-001</_>
    <_>
      4.22660053e-001 2.16085002e-001 3.07220608e-001 5.82240596e-002
      2.37705447e-002 6.36692718e-002 1.82448208e-001 5.15557766e-001
      4.22191292e-001 4.26611841e-001 3.24723184e-001 3.75000000e-001</_>
    <_>
      4.85151052e-001 3.11887413e-001 3.79215747e-001 1.11482024e-001
      1.79600678e-002 1.81175824e-002 3.50531042e-001 3.86762381e-001
      5.99940479e-001 2.61514485e-001 3.21173370e-001 1.</_></support_vectors>
  <decision_functions>
    <_>
      <sv_count>13</sv_count>
      <rho>-2.4424666983009282e+000</rho>
      <alpha>
        4.9664518678459517e+000 7.6815259267577995e-001
        1.7063937354984813e+000 5.8563077940767405e+000
        1.2500000000000000e+001 5.5420714821662145e+000
        7.5662577976816463e+000 8.3540361576261706e+000
        -1.2500000000000000e+001 -1.2500000000000000e+001
        -6.9808998246618889e-002 -1.2500000000000000e+001
        -9.6898624293243660e+000</alpha>
      <index>
        0 1 2 3 4 5 6 7 8 9 10 11 12</index></_></decision_functions></my_svm>
</opencv_storage>
