<?xml version="1.0"?>
<opencv_storage>
<my_svm type_id="opencv-ml-svm">
  <svm_type>C_SVC</svm_type>
  <kernel><type>RBF</type>
    <gamma>5.0625000000000009e-001</gamma></kernel>
  <C>6.2500000000000000e+001</C>
  <term_criteria><epsilon>1.1920928955078125e-007</epsilon>
    <iterations>100</iterations></term_criteria>
  <var_all>12</var_all>
  <var_count>12</var_count>
  <class_count>2</class_count>
  <class_labels type_id="opencv-matrix">
    <rows>1</rows>
    <cols>2</cols>
    <dt>i</dt>
    <data>
      -1 1</data></class_labels>
  <sv_total>10</sv_total>
  <support_vectors>
    <_>
      1.86632216e-001 1.03533387e-001 2.26467792e-002 4.98503000e-002
      1.66489631e-002 5.43817915e-002 1.75085306e-001 5.51710010e-001
      3.46545339e-001 6.56760812e-001 6.29048526e-001 3.75000000e-001</_>
    <_>
      1.44389018e-001 8.59813690e-002 1.07507594e-002 2.03906465e-003
      1.46624520e-002 3.77834961e-002 1.74615562e-001 6.85587585e-001
      4.78509843e-001 6.85661972e-001 7.76048362e-001 2.50000000e-001</_>
    <_>
      7.21575990e-002 1.27771199e-002 8.08174349e-003 9.00007784e-003
      1.45948697e-002 3.78199480e-002 1.75045356e-001 5.18533945e-001
      2.66768366e-001 6.16347909e-001 6.11758411e-001 1.</_>
    <_>
      1.81631535e-001 1.29372358e-001 5.46213426e-003 1.76549759e-002
      1.48760751e-002 4.38998416e-002 1.74543530e-001 6.83177948e-001
      2.97449470e-001 8.01219165e-001 7.31770039e-001 1.</_>
    <_>
      3.30635011e-002 7.21714040e-003 3.29985991e-002 5.73796360e-003
      1.47540504e-002 3.75447869e-002 1.74401075e-001 9.29917812e-001
      6.50122687e-002 9.20406520e-001 8.20784926e-001 3.75000000e-001</_>
    <_>
      1.00422263e-001 1.23334210e-002 6.02408648e-002 1.99339283e-003
      1.46868918e-002 3.69019620e-002 1.74819186e-001 4.27056044e-001
      4.28093165e-001 5.54695845e-001 5.58889091e-001 2.50000000e-001</_>
    <_>
      7.82534108e-002 1.46952374e-002 3.88552509e-002 1.44093519e-003
      1.46717681e-002 3.72355804e-002 1.74592704e-001 5.87097228e-001
      3.01127613e-001 8.05811822e-001 6.31125331e-001 5.00000000e-001</_>
    <_>
      8.38446915e-002 3.82605387e-004 7.80155137e-002 9.45184511e-005
      1.46694900e-002 3.71543579e-002 1.74686521e-001 5.17071784e-001
      4.59192604e-001 6.84658110e-001 6.18908346e-001 5.00000000e-001</_>
    <_>
      6.41364902e-002 0. 3.38100456e-002 9.03193490e-004 1.46739483e-002
      3.71519811e-002 1.74651965e-001 6.00132704e-001 3.53549242e-001
      7.23571360e-001 6.89102054e-001 5.00000000e-001</_>
    <_>
      1.40639275e-001 5.44905802e-003 5.23978062e-002 0. 1.46688307e-002
      3.71559039e-002 1.74683556e-001 5.53339958e-001 8.00442815e-001
      7.64499664e-001 5.08435369e-001 3.75000000e-001</_></support_vectors>
  <decision_functions>
    <_>
      <sv_count>10</sv_count>
      <rho>-6.1738897030459965e+000</rho>
      <alpha>
        2.0542935506518457e+001 1.9627675265223402e+001
        2.1194980798149242e+001 3.0226706248296940e+000
        1.1753704470154304e+001 1.9210890651090565e+001
        -1.3386220998175428e+001 -1.6468152537443846e+001
        -6.2500000000000000e+001 -2.9984837803463802e+000</alpha>
      <index>
        0 1 2 3 4 5 6 7 8 9</index></_></decision_functions></my_svm>
</opencv_storage>
