<?xml version="1.0"?>
<opencv_storage>
<my_svm type_id="opencv-ml-svm">
  <svm_type>C_SVC</svm_type>
  <kernel><type>RBF</type>
    <gamma>5.0625000000000009e-001</gamma></kernel>
  <C>6.2500000000000000e+001</C>
  <term_criteria><epsilon>1.1920928955078125e-007</epsilon>
    <iterations>100</iterations></term_criteria>
  <var_all>12</var_all>
  <var_count>12</var_count>
  <class_count>2</class_count>
  <class_labels type_id="opencv-matrix">
    <rows>1</rows>
    <cols>2</cols>
    <dt>i</dt>
    <data>
      -1 1</data></class_labels>
  <sv_total>14</sv_total>
  <support_vectors>
    <_>
      3.65120977e-001 2.95839787e-001 2.17019841e-001 2.05309063e-001
      6.56046495e-002 1.55519828e-001 1.91157982e-001 7.49313891e-001
      2.29913130e-001 4.22889382e-001 6.89988554e-001 6.25000000e-001</_>
    <_>
      4.85151052e-001 3.11887413e-001 3.79215747e-001 1.11482024e-001
      1.79600678e-002 1.81175824e-002 3.50531042e-001 3.86762381e-001
      5.99940479e-001 2.61514485e-001 3.21173370e-001 1.</_>
    <_>
      2.63331383e-001 1.62050322e-001 9.37726870e-002 3.59154493e-002
      1.57013647e-002 3.42176780e-002 1.60010800e-001 5.23133039e-001
      2.32315928e-001 4.56018984e-001 5.40079355e-001 1.</_>
    <_>
      4.22660053e-001 2.16085002e-001 3.07220608e-001 5.82240596e-002
      2.37705447e-002 6.36692718e-002 1.82448208e-001 5.15557766e-001
      4.22191292e-001 4.26611841e-001 3.24723184e-001 3.75000000e-001</_>
    <_>
      3.00940603e-001 2.15854168e-001 2.24058423e-002 5.99921420e-002
      1.71724688e-002 6.63081780e-002 1.70070231e-001 5.90720236e-001
      4.44079071e-001 6.56662226e-001 6.71473980e-001 3.75000000e-001</_>
    <_>
      3.07475090e-001 2.48636067e-001 2.49187071e-002 3.92120220e-002
      1.61192492e-002 5.63850068e-002 1.74693376e-001 6.83250606e-001
      3.85868609e-001 7.73475111e-001 7.60272801e-001 2.50000000e-001</_>
    <_>
      6.12086236e-001 6.13449931e-001 3.01904887e-001 2.90624589e-001
      1.13591045e-001 2.48660475e-001 3.17115158e-001 7.91199565e-001
      2.73225218e-001 6.84766054e-001 7.20167577e-001 2.50000000e-001</_>
    <_>
      1.67113185e-001 9.17649642e-002 1.08631678e-001 3.22464705e-002
      1.61078125e-002 3.99291888e-002 1.63284823e-001 6.12548947e-001
      1.78301692e-001 5.95900357e-001 6.94801867e-001 3.75000000e-001</_>
    <_>
      3.68997931e-001 2.42369011e-001 1.85312167e-001 5.25396131e-002
      1.22522507e-002 1.47154974e-002 1.37818009e-001 6.62714660e-001
      2.47759491e-001 3.82506192e-001 5.71052372e-001 2.50000000e-001</_>
    <_>
      3.50842625e-001 2.27479637e-001 1.51106536e-001 6.29408211e-002
      1.80098265e-002 2.80740447e-002 1.32546470e-001 5.86027622e-001
      2.68531382e-001 3.32812577e-001 5.20278156e-001 1.</_>
    <_>
      4.38069999e-001 2.68873215e-001 4.95065212e-001 7.26700127e-002 0.
      0. 1.28981799e-001 4.14789200e-001 3.63921136e-001 3.43073934e-001
      3.20280343e-001 5.00000000e-001</_>
    <_>
      3.80630493e-001 2.90947348e-001 1.72709763e-001 2.51720734e-002
      1.34216724e-002 2.56025251e-002 1.64733469e-001 5.59401870e-001
      3.18871826e-001 5.09007156e-001 5.22885621e-001 5.00000000e-001</_>
    <_>
      3.84853899e-001 2.96617776e-001 1.56799406e-001 2.12050900e-002
      1.32551221e-002 2.48599295e-002 1.76716760e-001 5.20502388e-001
      3.63288343e-001 5.52329242e-001 5.97867370e-001 5.00000000e-001</_>
    <_>
      3.83639723e-001 2.29764223e-001 3.95519614e-001 5.95385097e-002
      4.05452866e-003 6.54296903e-003 1.62809610e-001 5.35607219e-001
      4.05209839e-001 5.51547408e-001 4.60808009e-001 3.75000000e-001</_></support_vectors>
  <decision_functions>
    <_>
      <sv_count>14</sv_count>
      <rho>-5.0893974829510666e+000</rho>
      <alpha>
        3.5602428891333049e+000 4.9376123753860740e-001
        6.6703747173254149e+000 6.2500000000000000e+001
        1.7002000845035244e+001 4.8005363707371074e-001
        4.1828123462134306e+000 6.0243390509285133e+000
        9.1030352431846069e+000 8.9642758782369789e+000
        -1.5227358230873824e+001 -6.2500000000000000e+001
        -9.8602961865504817e+000 -3.1393241427245513e+001</alpha>
      <index>
        0 1 2 3 4 5 6 7 8 9 10 11 12 13</index></_></decision_functions></my_svm>
</opencv_storage>
