<?xml version="1.0"?>
<opencv_storage>
<my_svm type_id="opencv-ml-svm">
  <svm_type>C_SVC</svm_type>
  <kernel><type>RBF</type>
    <gamma>5.0625000000000009e-001</gamma></kernel>
  <C>3.1250000000000000e+002</C>
  <term_criteria><epsilon>1.1920928955078125e-007</epsilon>
    <iterations>100</iterations></term_criteria>
  <var_all>12</var_all>
  <var_count>12</var_count>
  <class_count>2</class_count>
  <class_labels type_id="opencv-matrix">
    <rows>1</rows>
    <cols>2</cols>
    <dt>i</dt>
    <data>
      -1 1</data></class_labels>
  <sv_total>23</sv_total>
  <support_vectors>
    <_>
      1.44389018e-001 8.59813690e-002 1.07507594e-002 2.03906465e-003
      1.46624520e-002 3.77834961e-002 1.74615562e-001 6.85587585e-001
      4.78509843e-001 6.85661972e-001 7.76048362e-001 2.50000000e-001</_>
    <_>
      3.04277003e-001 2.44198233e-001 8.67333487e-002 7.83971176e-002
      2.22818237e-002 7.53147155e-002 1.72603101e-001 8.37678015e-001
      1.98597237e-001 5.51971555e-001 8.03203404e-001 2.50000000e-001</_>
    <_>
      2.91287422e-001 1.48839086e-001 4.98852096e-002 4.46840972e-002
      1.42749147e-002 5.54464348e-002 1.58530578e-001 4.67078745e-001
      3.88750702e-001 3.18709910e-001 4.52649444e-001 2.50000000e-001</_>
    <_>
      3.65120977e-001 2.95839787e-001 2.17019841e-001 2.05309063e-001
      6.56046495e-002 1.55519828e-001 1.91157982e-001 7.49313891e-001
      2.29913130e-001 4.22889382e-001 6.89988554e-001 6.25000000e-001</_>
    <_>
      1.57081485e-001 6.14976920e-002 1.59034189e-002 1.44741237e-002
      1.46906720e-002 3.87790799e-002 1.76395416e-001 5.48661530e-001
      3.29662800e-001 3.51600945e-001 5.84993482e-001 3.75000000e-001</_>
    <_>
      3.84853899e-001 2.96617776e-001 1.56799406e-001 2.12050900e-002
      1.32551221e-002 2.48599295e-002 1.76716760e-001 5.20502388e-001
      3.63288343e-001 5.52329242e-001 5.97867370e-001 5.00000000e-001</_>
    <_>
      3.45743924e-001 2.80053705e-001 2.13534176e-001 2.08318383e-001
      6.61015958e-002 1.51284799e-001 2.09308654e-001 8.26391160e-001
      2.16399789e-001 4.57328975e-001 7.28595495e-001 2.50000000e-001</_>
    <_>
      2.49129072e-001 1.34682700e-001 1.00088030e-001 7.06738308e-002
      1.92715768e-002 4.46402952e-002 1.39999241e-001 5.43622792e-001
      2.47503966e-001 3.78532708e-001 4.41813499e-001 2.50000000e-001</_>
    <_>
      1.85802892e-001 1.03855535e-001 3.13871750e-003 1.89883802e-002
      1.45294312e-002 4.36560437e-002 1.73960254e-001 6.62411213e-001
      3.09955686e-001 6.94705963e-001 6.91882074e-001 2.50000000e-001</_>
    <_>
      1.91373110e-001 1.24120548e-001 2.16227192e-002 2.46251449e-002
      1.53319556e-002 4.25694510e-002 1.73884660e-001 6.87762499e-001
      2.99867898e-001 4.78383362e-001 7.56824255e-001 2.50000000e-001</_>
    <_>
      1.94024459e-001 1.35401130e-001 1.07445347e-003 1.15346536e-002
      1.47205172e-002 4.11050245e-002 1.74680308e-001 6.63705349e-001
      3.04960370e-001 3.09749365e-001 7.45320320e-001 2.50000000e-001</_>
    <_>
      1.93403870e-001 5.99188730e-002 6.90510273e-002 1.12514347e-001
      2.57344507e-002 6.67431355e-002 1.50025770e-001 3.91580343e-001
      3.52540344e-001 2.32574850e-001 4.94954318e-001 2.50000000e-001</_>
    <_>
      1.51468158e-001 8.23822469e-002 1.74652487e-002 1.81710697e-003
      1.46717131e-002 3.67806703e-002 1.74765751e-001 5.63518107e-001
      5.63559294e-001 5.11779904e-001 7.32199669e-001 3.75000000e-001</_>
    <_>
      2.44255751e-001 2.01524064e-001 5.09206392e-002 4.61316407e-002
      1.73008125e-002 5.81059121e-002 1.73313990e-001 8.71544421e-001
      1.56966180e-001 9.24708843e-001 8.86175752e-001 2.50000000e-001</_>
    <_>
      2.28837103e-001 1.42053574e-001 1.39297824e-002 6.54690387e-003
      1.45971589e-002 3.98089848e-002 1.74530312e-001 5.66992939e-001
      3.54454219e-001 6.47487283e-001 6.42184138e-001 3.75000000e-001</_>
    <_>
      2.45177820e-001 9.79253650e-002 6.83572814e-002 4.03680131e-002
      1.30941784e-002 5.07334098e-002 1.61899805e-001 5.02956390e-001
      3.69956285e-001 5.93104005e-001 4.96394634e-001 2.50000000e-001</_>
    <_>
      5.60805082e-001 5.59402585e-001 2.22997636e-001 2.42321104e-001
      8.04653689e-002 2.16855273e-001 2.27095231e-001 8.39755833e-001
      3.05208802e-001 5.86800158e-001 7.60404944e-001 2.50000000e-001</_>
    <_>
      1.89198285e-001 9.12077948e-002 1.93514191e-002 2.87781563e-002
      1.47903217e-002 4.57085297e-002 1.69455662e-001 5.82762241e-001
      3.71610492e-001 5.42330503e-001 6.03512704e-001 2.50000000e-001</_>
    <_>
      1.71749368e-001 7.97684714e-002 1.49815856e-002 3.36068049e-002
      1.55413160e-002 4.73576412e-002 1.73382819e-001 6.01395845e-001
      3.02334726e-001 3.44496012e-001 6.13902211e-001 2.50000000e-001</_>
    <_>
      3.11244607e-001 2.27422684e-001 1.23513192e-002 5.83100542e-002
      1.65211577e-002 6.59770444e-002 1.74009159e-001 6.29490137e-001
      3.56993049e-001 5.45217872e-001 6.23607993e-001 2.50000000e-001</_>
    <_>
      2.69724429e-001 1.76340878e-001 1.47022130e-002 7.36577362e-002
      1.73006188e-002 7.03438818e-002 1.67176038e-001 5.97700715e-001
      3.85423332e-001 6.67882383e-001 6.22005403e-001 2.50000000e-001</_>
    <_>
      2.13829428e-001 1.24691673e-001 6.73296154e-002 4.97095883e-002
      1.80105250e-002 5.49256206e-002 1.78577542e-001 5.66095412e-001
      3.53566617e-001 5.60923696e-001 6.65038228e-001 3.75000000e-001</_>
    <_>
      2.50904948e-001 1.68920800e-001 9.14390571e-003 5.42774871e-002
      1.60531495e-002 6.10071421e-002 1.72155842e-001 6.89386487e-001
      3.60651135e-001 7.84008920e-001 7.08949804e-001 2.50000000e-001</_></support_vectors>
  <decision_functions>
    <_>
      <sv_count>23</sv_count>
      <rho>-1.0314728824277385e+001</rho>
      <alpha>
        2.0533934577223437e+001 2.4259711156806848e+001
        2.5770538993255631e+001 2.9319040451092371e+000
        1.9882823650832187e+001 1.1045925679974406e+001
        4.9545029710877941e+001 8.2265463445019478e+000
        2.0653813048420722e+002 4.6484307324220907e+001
        9.9712288043802104e+001 4.0761920059581271e+001
        2.2534750931913685e+001 2.3117080028647128e+000
        2.4094508407709978e+002 5.0270681143333363e+001
        1.8211576972266517e+001 1.4791379196134508e+002
        -3.1250000000000000e+002 -1.2649396514847226e+002
        -7.1893400501034721e+000 -3.1250000000000000e+002
        -2.7919734796064051e+002</alpha>
      <index>
        0 1 2 3 4 5 6 7 8 9 10 11 12 13 14 15 16 17 18 19 20 21 22</index></_></decision_functions></my_svm>
</opencv_storage>
