<?xml version="1.0"?>
<opencv_storage>
<my_svm type_id="opencv-ml-svm">
  <svm_type>C_SVC</svm_type>
  <kernel><type>RBF</type>
    <gamma>5.0625000000000009e-001</gamma></kernel>
  <C>2.5000000000000000e+000</C>
  <term_criteria><epsilon>1.1920928955078125e-007</epsilon>
    <iterations>100</iterations></term_criteria>
  <var_all>12</var_all>
  <var_count>12</var_count>
  <class_count>2</class_count>
  <class_labels type_id="opencv-matrix">
    <rows>1</rows>
    <cols>2</cols>
    <dt>i</dt>
    <data>
      -1 1</data></class_labels>
  <sv_total>8</sv_total>
  <support_vectors>
    <_>
      6.25044331e-002 5.99943176e-002 4.81935218e-003 4.36475675e-004
      1.46681042e-002 3.70331481e-002 8.47505033e-001 9.89063501e-001
      3.37835066e-002 9.59909022e-001 9.95352983e-001 2.50000000e-001</_>
    <_>
      5.90474427e-001 5.67241669e-001 2.80523509e-001 1.38326973e-001
      4.11242284e-002 8.38032812e-002 7.48912215e-001 4.36174750e-001
      6.33600175e-001 5.73565423e-001 3.97326469e-001 5.00000000e-001</_>
    <_>
      4.79550302e-001 3.29397947e-001 3.44230682e-001 1.11482024e-001
      1.79600678e-002 1.81175824e-002 9.74371254e-001 3.57137799e-001
      6.07753336e-001 2.45650813e-001 3.21833372e-001 1.</_>
    <_>
      7.36328065e-001 8.56027544e-001 6.37469947e-001 1. 1. 1.
      8.03762674e-001 8.13310146e-001 3.80577594e-001 5.48414707e-001
      6.42933488e-001 2.50000000e-001</_>
    <_>
      1. 9.96634305e-001 1. 7.00488627e-001 7.15769649e-001
      7.53782153e-001 0. 0. 9.68189478e-001 0. 3.22004259e-002 1.</_>
    <_>
      9.00728285e-001 8.91393065e-001 3.96122247e-001 2.53588527e-001
      1.08541168e-001 2.64472693e-001 1. 3.12434044e-002 9.80661809e-001
      1.18588328e-001 1.38599768e-001 1.</_>
    <_>
      9.19226050e-001 7.07699537e-001 7.93233097e-001 2.13790566e-001
      1.23346962e-001 2.24689290e-001 8.59749973e-001 4.57241684e-002
      7.15489447e-001 3.35949361e-002 0. 1.</_>
    <_>
      9.55737650e-001 1. 8.40658486e-001 8.09756041e-001 8.39049280e-001
      8.80865693e-001 9.25983548e-001 1.71819597e-001 9.71840382e-001
      2.58568041e-002 1.21393047e-001 1.</_></support_vectors>
  <decision_functions>
    <_>
      <sv_count>8</sv_count>
      <rho>-2.3112846941254153e-001</rho>
      <alpha>
        7.2595687021787508e-002 5.2424372935722530e-001
        2.2534957692012294e+000 1.0293415922869544e+000
        -4.7045965306484178e-001 -1.6277623464677542e+000
        -1.2740803652942814e+000 -5.0737441304031883e-001</alpha>
      <index>
        0 1 2 3 4 5 6 7</index></_></decision_functions></my_svm>
</opencv_storage>
