<?xml version="1.0"?>
<opencv_storage>
<my_svm type_id="opencv-ml-svm">
  <svm_type>C_SVC</svm_type>
  <kernel><type>RBF</type>
    <gamma>5.0625000000000009e-001</gamma></kernel>
  <C>3.1250000000000000e+002</C>
  <term_criteria><epsilon>1.1920928955078125e-007</epsilon>
    <iterations>100</iterations></term_criteria>
  <var_all>12</var_all>
  <var_count>12</var_count>
  <class_count>2</class_count>
  <class_labels type_id="opencv-matrix">
    <rows>1</rows>
    <cols>2</cols>
    <dt>i</dt>
    <data>
      -1 1</data></class_labels>
  <sv_total>14</sv_total>
  <support_vectors>
    <_>
      1.77522644e-001 2.88892426e-002 1.39020652e-001 6.42502680e-002
      2.17631515e-002 4.88440096e-002 1.80916801e-001 3.26721787e-001
      5.20352960e-001 4.13121760e-001 4.20937002e-001 1.</_>
    <_>
      1.14378251e-001 1.13912590e-003 1.01681784e-001 2.85769608e-002
      1.45501969e-002 3.83099616e-002 1.86612353e-001 4.48395222e-001
      2.83176512e-001 5.18081427e-001 5.05131006e-001 1.</_>
    <_>
      1.34092897e-001 7.31471330e-002 1.41912065e-002 9.49683599e-003
      1.47320749e-002 3.99305411e-002 1.75444752e-001 4.36735421e-001
      3.98225546e-001 3.96365702e-001 6.73651457e-001 3.75000000e-001</_>
    <_>
      1.81631535e-001 1.29372358e-001 5.46213426e-003 1.76549759e-002
      1.48760751e-002 4.38998416e-002 1.74543530e-001 6.83177948e-001
      2.97449470e-001 8.01219165e-001 7.31770039e-001 1.</_>
    <_>
      1.17073491e-001 5.75410351e-002 3.82475113e-003 4.43592435e-003
      1.46463970e-002 3.83113250e-002 1.74678221e-001 4.41557884e-001
      3.70166749e-001 4.97624278e-001 6.59823656e-001 2.50000000e-001</_>
    <_>
      1.30499750e-001 4.39500762e-003 1.08937807e-001 4.11694311e-002
      1.31736416e-002 4.01367284e-002 1.55705810e-001 3.95519286e-001
      3.09457093e-001 2.90445864e-001 4.66092914e-001 0.</_>
    <_>
      1.68610632e-001 2.67724544e-002 1.00470312e-001 6.83845431e-002
      1.51870167e-002 4.91676889e-002 1.30943865e-001 3.72177869e-001
      3.42818171e-001 2.82764792e-001 4.38651294e-001 2.50000000e-001</_>
    <_>
      3.31755787e-001 1.50735661e-001 1.20587803e-001 6.36964664e-002
      1.79862343e-002 6.28367886e-002 1.37366682e-001 3.95375371e-001
      4.07256842e-001 2.90615618e-001 3.57572138e-001 2.50000000e-001</_>
    <_>
      1.50121823e-001 6.80160299e-002 5.03093079e-002 2.62241475e-002
      1.56764332e-002 4.41041663e-002 1.78002819e-001 4.03619826e-001
      4.17471915e-001 4.34439927e-001 6.36444807e-001 1.</_>
    <_>
      8.36503431e-002 1.00036459e-002 5.42277507e-002 2.02309061e-002
      1.49565423e-002 3.83107737e-002 1.79542661e-001 5.69877148e-001
      2.00559780e-001 4.56941903e-001 6.52243435e-001 1.</_>
    <_>
      1.04102038e-001 1.68394868e-003 3.85114774e-002 2.21766508e-003
      1.46569218e-002 3.71839590e-002 1.74533606e-001 4.05221373e-001
      7.17161179e-001 7.44986176e-001 4.87762511e-001 5.00000000e-001</_>
    <_>
      1.60421476e-001 8.35095122e-002 4.42565754e-002 4.75219777e-003
      1.45859253e-002 3.61490026e-002 1.74624294e-001 3.36512089e-001
      4.57622528e-001 4.47888583e-001 5.37926137e-001 2.50000000e-001</_>
    <_>
      1.25812784e-001 5.19452468e-002 6.36931285e-002 3.06171039e-003
      1.46547137e-002 3.73609625e-002 1.74349889e-001 4.03622895e-001
      4.81756598e-001 5.00989318e-001 5.34906507e-001 1.</_>
    <_>
      7.21575990e-002 1.27771199e-002 8.08174349e-003 9.00007784e-003
      1.45948697e-002 3.78199480e-002 1.75045356e-001 5.18533945e-001
      2.66768366e-001 6.16347909e-001 6.11758411e-001 1.</_></support_vectors>
  <decision_functions>
    <_>
      <sv_count>14</sv_count>
      <rho>-4.7848466696931231e+000</rho>
      <alpha>
        8.1156949875097855e+000 1.2003744917873719e+002
        4.6797116116145308e+000 1.4951013228669630e+001
        9.6096211089949236e+001 1.4803389121697348e+001
        1.0913195387506928e+001 2.3887965412267160e+001
        1.2763813975323028e+002 3.5933371897839539e-001
        7.1451015378328620e+001 -1.9948832955720599e+002
        -1.5619398617887811e+002 -1.3725080313240505e+002</alpha>
      <index>
        0 1 2 3 4 5 6 7 8 9 10 11 12 13</index></_></decision_functions></my_svm>
</opencv_storage>
