<?xml version="1.0"?>
<opencv_storage>
<my_svm type_id="opencv-ml-svm">
  <svm_type>C_SVC</svm_type>
  <kernel><type>RBF</type>
    <gamma>5.0625000000000009e-001</gamma></kernel>
  <C>3.1250000000000000e+002</C>
  <term_criteria><epsilon>1.1920928955078125e-007</epsilon>
    <iterations>100</iterations></term_criteria>
  <var_all>12</var_all>
  <var_count>12</var_count>
  <class_count>2</class_count>
  <class_labels type_id="opencv-matrix">
    <rows>1</rows>
    <cols>2</cols>
    <dt>i</dt>
    <data>
      -1 1</data></class_labels>
  <sv_total>10</sv_total>
  <support_vectors>
    <_>
      1.02801971e-001 5.45646176e-002 5.25496043e-002 2.62197554e-002
      3.71336681e-003 2.80889086e-002 1.75673619e-001 7.71858990e-001
      1.67257220e-001 3.90720516e-001 7.43395209e-001 1.</_>
    <_>
      1.31763592e-001 5.89894876e-003 1.65917009e-001 2.52108090e-002
      2.00364762e-003 2.06168294e-002 1.86820939e-001 4.81135160e-001
      2.31120884e-001 4.07274723e-001 4.58096266e-001 1.</_>
    <_>
      1.02905512e-001 7.44368322e-003 7.16096684e-002 4.96379286e-003
      2.67104595e-003 2.26355344e-002 1.74782753e-001 5.87942421e-001
      4.22801763e-001 4.36372817e-001 5.97486258e-001 1.</_>
    <_>
      2.43102729e-001 1.57992303e-001 1.20240070e-001 2.96247862e-002
      3.71892215e-003 1.98305286e-002 1.86147705e-001 7.54355073e-001
      2.45763853e-001 2.58220106e-001 6.43483520e-001 1.</_>
    <_>
      2.30565846e-001 1.43631786e-001 1.84854716e-001 1.09574944e-001
      2.06139088e-002 5.61031774e-002 2.03333616e-001 8.09875965e-001
      2.06184655e-001 4.07428175e-001 6.45141006e-001 1.</_>
    <_>
      8.36503431e-002 1.00036459e-002 5.42277507e-002 2.02309061e-002
      2.84863403e-003 2.39476766e-002 1.79542661e-001 5.69877148e-001
      2.00559780e-001 4.56941903e-001 6.52243435e-001 1.</_>
    <_>
      1.18894905e-001 1.22800050e-002 1.53175712e-001 1.01032136e-002
      3.03659216e-003 2.27881391e-002 1.74530730e-001 5.89581370e-001
      2.42129475e-001 4.43941474e-001 5.57970643e-001 1.</_>
    <_>
      1.02955572e-001 1.84777267e-002 1.41489610e-001 2.12214682e-002
      3.55811790e-003 2.54258383e-002 1.80972785e-001 5.49819171e-001
      3.08036417e-001 3.66949558e-001 5.16103327e-001 1.</_>
    <_>
      1.18894905e-001 1.22800050e-002 1.53175712e-001 1.01032136e-002
      3.03659216e-003 2.27881391e-002 1.74530730e-001 5.89581370e-001
      2.42129475e-001 4.43941474e-001 5.57970643e-001 1.</_>
    <_>
      1.52498335e-001 4.64300103e-002 2.10930005e-001 5.67923822e-002
      7.84263294e-003 3.00176051e-002 2.08438396e-001 5.59801340e-001
      2.26164654e-001 4.04651493e-001 5.69524348e-001 1.</_></support_vectors>
  <decision_functions>
    <_>
      <sv_count>10</sv_count>
      <rho>-9.7441445670767877e+000</rho>
      <alpha>
        9.4148882631903756e+000 3.1250000000000000e+002
        1.6768138843010843e+002 1.2098750593070607e+001
        7.1555777380095606e+001 9.3450797901912793e+001
        -3.1250000000000000e+002 -2.7207940432325893e+002
        -4.3131303516448817e+001 -3.8990894728669993e+001</alpha>
      <index>
        0 1 2 3 4 5 6 7 8 9</index></_></decision_functions></my_svm>
</opencv_storage>
