<?xml version="1.0"?>
<opencv_storage>
<my_svm type_id="opencv-ml-svm">
  <svm_type>C_SVC</svm_type>
  <kernel><type>RBF</type>
    <gamma>5.0625000000000009e-001</gamma></kernel>
  <C>3.1250000000000000e+002</C>
  <term_criteria><epsilon>1.1920928955078125e-007</epsilon>
    <iterations>100</iterations></term_criteria>
  <var_all>12</var_all>
  <var_count>12</var_count>
  <class_count>2</class_count>
  <class_labels type_id="opencv-matrix">
    <rows>1</rows>
    <cols>2</cols>
    <dt>i</dt>
    <data>
      -1 1</data></class_labels>
  <sv_total>9</sv_total>
  <support_vectors>
    <_>
      7.60139152e-002 6.09177202e-002 4.72263945e-003 3.39436578e-004
      1.46683911e-002 3.70578021e-002 1.74679264e-001 9.96134281e-001
      4.61234264e-002 6.58340156e-001 9.61189210e-001 1.</_>
    <_>
      1.29662916e-001 7.99301118e-002 1.85850859e-002 1.70231033e-002
      1.49932764e-002 4.18393686e-002 1.73652336e-001 7.79488385e-001
      1.49346933e-001 4.91104186e-001 7.97137141e-001 1.</_>
    <_>
      3.87184411e-001 3.62836450e-001 4.45753895e-003 7.49954605e-004
      1.46674262e-002 3.66105288e-002 1.74674436e-001 8.18800688e-001
      1.71714202e-001 3.05408865e-001 8.74624252e-001 1.</_>
    <_>
      1.65347502e-001 1.07685938e-001 6.50496036e-003 7.57267606e-003
      1.46978013e-002 3.96532267e-002 1.74304649e-001 7.42116570e-001
      2.41080597e-001 4.23785985e-001 7.68571138e-001 1.</_>
    <_>
      2.60299772e-001 2.01011613e-001 1.04859479e-001 5.33659980e-002
      1.90378074e-002 6.02220297e-002 1.63155720e-001 8.76092076e-001
      2.22376823e-001 1.88624948e-001 8.21939766e-001 6.25000000e-001</_>
    <_>
      8.22266713e-002 5.13122007e-002 1.32155344e-002 7.91079178e-003
      1.47661157e-002 3.88438851e-002 1.74715519e-001 8.31611812e-001
      1.02067105e-001 4.68694746e-001 8.53203177e-001 1.</_>
    <_>
      2.83091277e-001 2.35590458e-001 1.38148712e-002 1.14470916e-002
      1.48385009e-002 4.13404815e-002 1.74879536e-001 8.35333407e-001
      2.00897649e-001 3.64376783e-001 8.35945427e-001 1.</_>
    <_>
      1.62546068e-001 1.05091378e-001 3.11406534e-002 1.13807747e-003
      1.46604329e-002 3.68658789e-002 1.74664199e-001 7.59787261e-001
      1.62833810e-001 3.75918388e-001 7.47603595e-001 1.</_>
    <_>
      1.41466245e-001 9.89480615e-002 2.69641168e-002 1.05666155e-002
      1.48590654e-002 3.80181819e-002 1.75312892e-001 8.33974540e-001
      1.26996294e-001 4.87511277e-001 8.45369875e-001 1.</_></support_vectors>
  <decision_functions>
    <_>
      <sv_count>9</sv_count>
      <rho>-1.5673082922169064e+001</rho>
      <alpha>
        1.0064625022259131e+002 3.1250000000000000e+002
        1.9655527166399651e+002 2.0781208690727459e+002
        2.5301048538029136e+001 -8.2481869378082038e+001
        -3.1250000000000000e+002 -1.3533278795380934e+002
        -3.1250000000000000e+002</alpha>
      <index>
        0 1 2 3 4 5 6 7 8</index></_></decision_functions></my_svm>
</opencv_storage>
