<?xml version="1.0"?>
<opencv_storage>
<my_svm type_id="opencv-ml-svm">
  <svm_type>C_SVC</svm_type>
  <kernel><type>RBF</type>
    <gamma>5.0625000000000009e-001</gamma></kernel>
  <C>3.1250000000000000e+002</C>
  <term_criteria><epsilon>1.1920928955078125e-007</epsilon>
    <iterations>100</iterations></term_criteria>
  <var_all>12</var_all>
  <var_count>12</var_count>
  <class_count>2</class_count>
  <class_labels type_id="opencv-matrix">
    <rows>1</rows>
    <cols>2</cols>
    <dt>i</dt>
    <data>
      -1 1</data></class_labels>
  <sv_total>20</sv_total>
  <support_vectors>
    <_>
      2.50904948e-001 1.68920800e-001 9.14390571e-003 5.42774871e-002
      1.60531495e-002 6.10071421e-002 1.72155842e-001 6.89386487e-001
      3.60651135e-001 7.84008920e-001 7.08949804e-001 2.50000000e-001</_>
    <_>
      3.11244607e-001 2.27422684e-001 1.23513192e-002 5.83100542e-002
      1.65211577e-002 6.59770444e-002 1.74009159e-001 6.29490137e-001
      3.56993049e-001 5.45217872e-001 6.23607993e-001 2.50000000e-001</_>
    <_>
      2.91287422e-001 1.48839086e-001 4.98852096e-002 4.46840972e-002
      1.42749147e-002 5.54464348e-002 1.58530578e-001 4.67078745e-001
      3.88750702e-001 3.18709910e-001 4.52649444e-001 2.50000000e-001</_>
    <_>
      7.82534108e-002 1.46952374e-002 3.88552509e-002 1.44093519e-003
      1.46717681e-002 3.72355804e-002 1.74592704e-001 5.87097228e-001
      3.01127613e-001 8.05811822e-001 6.31125331e-001 5.00000000e-001</_>
    <_>
      1.13518484e-001 7.90240336e-003 2.61243861e-002 2.56548245e-002
      1.39525272e-002 3.86314206e-002 1.72540769e-001 4.27198797e-001
      2.85885632e-001 3.56816351e-001 5.30839324e-001 2.50000000e-001</_>
    <_>
      1.53861046e-001 9.41723511e-002 6.70404267e-003 3.55394767e-003
      1.46861468e-002 3.68240774e-002 1.74766257e-001 6.10278904e-001
      2.42001921e-001 5.67313850e-001 7.11296022e-001 2.50000000e-001</_>
    <_>
      1.00422263e-001 1.23334210e-002 6.02408648e-002 1.99339283e-003
      1.46868918e-002 3.69019620e-002 1.74819186e-001 4.27056044e-001
      4.28093165e-001 5.54695845e-001 5.58889091e-001 2.50000000e-001</_>
    <_>
      2.69724429e-001 1.76340878e-001 1.47022130e-002 7.36577362e-002
      1.73006188e-002 7.03438818e-002 1.67176038e-001 5.97700715e-001
      3.85423332e-001 6.67882383e-001 6.22005403e-001 2.50000000e-001</_>
    <_>
      1.57081485e-001 6.14976920e-002 1.59034189e-002 1.44741237e-002
      1.46906720e-002 3.87790799e-002 1.76395416e-001 5.48661530e-001
      3.29662800e-001 3.51600945e-001 5.84993482e-001 3.75000000e-001</_>
    <_>
      9.97719020e-002 4.66413312e-002 5.45255765e-002 4.81593190e-003
      1.46388561e-002 3.63590121e-002 1.75270364e-001 5.95596254e-001
      2.84167856e-001 6.29268527e-001 6.89622283e-001 2.50000000e-001</_>
    <_>
      1.40639275e-001 5.44905802e-003 5.23978062e-002 0. 1.46688307e-002
      3.71559039e-002 1.74683556e-001 5.53339958e-001 8.00442815e-001
      7.64499664e-001 5.08435369e-001 3.75000000e-001</_>
    <_>
      1.86632216e-001 1.03533387e-001 2.26467792e-002 4.98503000e-002
      1.66489631e-002 5.43817915e-002 1.75085306e-001 5.51710010e-001
      3.46545339e-001 6.56760812e-001 6.29048526e-001 3.75000000e-001</_>
    <_>
      1.71749368e-001 7.97684714e-002 1.49815856e-002 3.36068049e-002
      1.55413160e-002 4.73576412e-002 1.73382819e-001 6.01395845e-001
      3.02334726e-001 3.44496012e-001 6.13902211e-001 2.50000000e-001</_>
    <_>
      1.67031199e-001 9.51080471e-002 3.70720252e-002 1.52917940e-003
      1.46637661e-002 3.66287343e-002 1.74773231e-001 6.57669902e-001
      4.37032372e-001 5.63675940e-001 6.96710467e-001 2.50000000e-001</_>
    <_>
      1.44633263e-001 8.44088867e-002 4.43398841e-002 6.73033763e-003
      1.46957748e-002 3.75826173e-002 1.73782066e-001 5.05732417e-001
      3.19549739e-001 5.83042920e-001 5.95958531e-001 2.50000000e-001</_>
    <_>
      1.89198285e-001 9.12077948e-002 1.93514191e-002 2.87781563e-002
      1.47903217e-002 4.57085297e-002 1.69455662e-001 5.82762241e-001
      3.71610492e-001 5.42330503e-001 6.03512704e-001 2.50000000e-001</_>
    <_>
      1.58380181e-001 1.85750630e-002 5.64385168e-002 4.92774881e-002
      1.32629145e-002 4.41375114e-002 1.56782314e-001 5.25422752e-001
      2.99080729e-001 4.71072882e-001 5.01572669e-001 2.50000000e-001</_>
    <_>
      2.28837103e-001 1.42053574e-001 1.39297824e-002 6.54690387e-003
      1.45971589e-002 3.98089848e-002 1.74530312e-001 5.66992939e-001
      3.54454219e-001 6.47487283e-001 6.42184138e-001 3.75000000e-001</_>
    <_>
      2.45177820e-001 9.79253650e-002 6.83572814e-002 4.03680131e-002
      1.30941784e-002 5.07334098e-002 1.61899805e-001 5.02956390e-001
      3.69956285e-001 5.93104005e-001 4.96394634e-001 2.50000000e-001</_>
    <_>
      1.85802892e-001 1.03855535e-001 3.13871750e-003 1.89883802e-002
      1.45294312e-002 4.36560437e-002 1.73960254e-001 6.62411213e-001
      3.09955686e-001 6.94705963e-001 6.91882074e-001 2.50000000e-001</_></support_vectors>
  <decision_functions>
    <_>
      <sv_count>20</sv_count>
      <rho>-1.2290202976023762e+001</rho>
      <alpha>
        7.4038099987913085e+001 6.9071330209228805e+001
        5.7848826159017335e+001 9.0041077483014078e+001
        1.3358706038934802e+001 1.3033650817110976e+002
        3.7786269047178500e+000 1.8119149428023482e+002
        3.2639712668744338e+001 3.2421972411149554e+001
        6.2800154230803598e+000 1.1139215943357783e+002
        2.3924153934062872e+001 1.0948735802488071e+002
        2.1677840423165122e+002 -3.1250000000000000e+002
        -1.5706265450230930e+002 -3.1250000000000000e+002
        -5.8025790859008005e+001 -3.1250000000000000e+002</alpha>
      <index>
        0 1 2 3 4 5 6 7 8 9 10 11 12 13 14 15 16 17 18 19</index></_></decision_functions></my_svm>
</opencv_storage>
