<?xml version="1.0"?>
<opencv_storage>
<my_svm type_id="opencv-ml-svm">
  <svm_type>C_SVC</svm_type>
  <kernel><type>RBF</type>
    <gamma>5.0625000000000009e-001</gamma></kernel>
  <C>6.2500000000000000e+001</C>
  <term_criteria><epsilon>1.1920928955078125e-007</epsilon>
    <iterations>100</iterations></term_criteria>
  <var_all>12</var_all>
  <var_count>12</var_count>
  <class_count>2</class_count>
  <class_labels type_id="opencv-matrix">
    <rows>1</rows>
    <cols>2</cols>
    <dt>i</dt>
    <data>
      -1 1</data></class_labels>
  <sv_total>7</sv_total>
  <support_vectors>
    <_>
      1.36953657e-002 1.31305689e-002 1.82961556e-003 1.52957567e-004
      1.46688242e-002 3.71260978e-002 1.74681351e-001 9.38125074e-001
      2.62870789e-002 6.31006658e-001 9.85860109e-001 2.50000000e-001</_>
    <_>
      0. 8.84273183e-003 1.49011076e-003 3.69584814e-005 1.46690123e-002
      3.71579379e-002 1.74682602e-001 9.72555697e-001 0. 1. 1. 1.</_>
    <_>
      1.73663586e-001 1.23744145e-001 7.31289238e-002 4.98672687e-002
      1.82102621e-002 5.45543730e-002 1.72753885e-001 9.20092285e-001
      1.25869527e-001 8.16277325e-001 8.62442732e-001 2.50000000e-001</_>
    <_>
      2.44255751e-001 2.01524064e-001 5.09206392e-002 4.61316407e-002
      1.73008125e-002 5.81059121e-002 1.73313990e-001 8.71544421e-001
      1.56966180e-001 9.24708843e-001 8.86175752e-001 2.50000000e-001</_>
    <_>
      7.54937232e-002 5.11762127e-002 2.87010595e-002 3.17849708e-003
      1.46321980e-002 3.64163518e-002 1.74724996e-001 9.17104661e-001
      3.67036052e-002 8.30073178e-001 9.00892913e-001 3.75000000e-001</_>
    <_>
      1.20550700e-001 1.01806432e-001 1.25006270e-002 3.22947279e-003
      1.46863209e-002 3.76360342e-002 1.74803168e-001 9.76700485e-001
      7.69292861e-002 9.53327239e-001 9.68702674e-001 2.50000000e-001</_>
    <_>
      8.10130537e-002 6.30837679e-002 1.65381804e-002 3.71978641e-003
      1.47005189e-002 3.77010927e-002 1.74572244e-001 9.25410092e-001
      6.55210912e-002 8.71307194e-001 9.49247956e-001 3.75000000e-001</_></support_vectors>
  <decision_functions>
    <_>
      <sv_count>7</sv_count>
      <rho>-7.4347932677350412e+000</rho>
      <alpha>
        4.7885268842636712e+001 2.3084226932984073e+001
        3.7818288917932279e+001 3.3323923883227643e+001
        -6.2500000000000000e+001 -1.7111708576780696e+001
        -6.2500000000000000e+001</alpha>
      <index>
        0 1 2 3 4 5 6</index></_></decision_functions></my_svm>
</opencv_storage>
