<?xml version="1.0"?>
<opencv_storage>
<my_svm type_id="opencv-ml-svm">
  <svm_type>C_SVC</svm_type>
  <kernel><type>RBF</type>
    <gamma>5.0625000000000009e-001</gamma></kernel>
  <C>3.1250000000000000e+002</C>
  <term_criteria><epsilon>1.1920928955078125e-007</epsilon>
    <iterations>100</iterations></term_criteria>
  <var_all>12</var_all>
  <var_count>12</var_count>
  <class_count>2</class_count>
  <class_labels type_id="opencv-matrix">
    <rows>1</rows>
    <cols>2</cols>
    <dt>i</dt>
    <data>
      -1 1</data></class_labels>
  <sv_total>15</sv_total>
  <support_vectors>
    <_>
      8.38446915e-002 3.82605387e-004 7.80155137e-002 9.45184511e-005
      1.46694900e-002 3.71543579e-002 1.74686521e-001 5.17071784e-001
      4.59192604e-001 6.84658110e-001 6.18908346e-001 5.00000000e-001</_>
    <_>
      1.13518484e-001 7.90240336e-003 2.61243861e-002 2.56548245e-002
      1.39525272e-002 3.86314206e-002 1.72540769e-001 4.27198797e-001
      2.85885632e-001 3.56816351e-001 5.30839324e-001 2.50000000e-001</_>
    <_>
      2.74078131e-001 1.97691709e-001 1.13348849e-002 4.97821607e-002
      1.60705373e-002 6.05785102e-002 1.75119430e-001 5.64021945e-001
      4.04640317e-001 6.14922583e-001 6.32766008e-001 2.50000000e-001</_>
    <_>
      2.34556735e-001 1.06181942e-001 8.10166597e-002 7.80587317e-003
      1.48626640e-002 3.82088497e-002 1.73808128e-001 5.46249568e-001
      6.36491477e-001 4.71666336e-001 5.51565588e-001 2.50000000e-001</_>
    <_>
      1.89198285e-001 9.12077948e-002 1.93514191e-002 2.87781563e-002
      1.47903217e-002 4.57085297e-002 1.69455662e-001 5.82762241e-001
      3.71610492e-001 5.42330503e-001 6.03512704e-001 2.50000000e-001</_>
    <_>
      1.85802892e-001 1.03855535e-001 3.13871750e-003 1.89883802e-002
      1.45294312e-002 4.36560437e-002 1.73960254e-001 6.62411213e-001
      3.09955686e-001 6.94705963e-001 6.91882074e-001 2.50000000e-001</_>
    <_>
      1.30499750e-001 4.39500762e-003 1.08937807e-001 4.11694311e-002
      1.31736416e-002 4.01367284e-002 1.55705810e-001 3.95519286e-001
      3.09457093e-001 2.90445864e-001 4.66092914e-001 0.</_>
    <_>
      1.44389018e-001 8.59813690e-002 1.07507594e-002 2.03906465e-003
      1.46624520e-002 3.77834961e-002 1.74615562e-001 6.85587585e-001
      4.78509843e-001 6.85661972e-001 7.76048362e-001 2.50000000e-001</_>
    <_>
      1.67031199e-001 9.51080471e-002 3.70720252e-002 1.52917940e-003
      1.46637661e-002 3.66287343e-002 1.74773231e-001 6.57669902e-001
      4.37032372e-001 5.63675940e-001 6.96710467e-001 2.50000000e-001</_>
    <_>
      1.51468158e-001 8.23822469e-002 1.74652487e-002 1.81710697e-003
      1.46717131e-002 3.67806703e-002 1.74765751e-001 5.63518107e-001
      5.63559294e-001 5.11779904e-001 7.32199669e-001 3.75000000e-001</_>
    <_>
      9.97719020e-002 4.66413312e-002 5.45255765e-002 4.81593190e-003
      1.46388561e-002 3.63590121e-002 1.75270364e-001 5.95596254e-001
      2.84167856e-001 6.29268527e-001 6.89622283e-001 2.50000000e-001</_>
    <_>
      9.92718264e-002 2.88888440e-002 4.25393060e-002 1.37387896e-002
      1.50237661e-002 3.96141969e-002 1.73541754e-001 4.61713731e-001
      3.80759716e-001 3.85639012e-001 5.70014775e-001 2.50000000e-001</_>
    <_>
      1.75446182e-001 8.57521966e-002 7.53095150e-002 6.68558106e-003
      1.44960647e-002 3.53201181e-002 1.74349859e-001 3.68369401e-001
      4.99856412e-001 3.36910635e-001 5.10353684e-001 2.50000000e-001</_>
    <_>
      1.20232359e-001 2.20219009e-002 8.20193365e-002 5.22439880e-003
      1.46872271e-002 3.64626497e-002 1.75531343e-001 3.13086301e-001
      5.52194893e-001 3.26508909e-001 4.55858171e-001 2.50000000e-001</_>
    <_>
      1.44633263e-001 8.44088867e-002 4.43398841e-002 6.73033763e-003
      1.46957748e-002 3.75826173e-002 1.73782066e-001 5.05732417e-001
      3.19549739e-001 5.83042920e-001 5.95958531e-001 2.50000000e-001</_></support_vectors>
  <decision_functions>
    <_>
      <sv_count>15</sv_count>
      <rho>-1.0980679986620959e+001</rho>
      <alpha>
        5.8317106900120905e+001 3.1250000000000000e+002
        5.8832233320613101e+000 5.7682488516677012e+001
        7.6795269962289288e+000 2.6146669042516550e+001
        7.1883192194526544e+001 1.9685309292657593e+001
        4.6754067075127963e+001 6.1689515840656682e+001
        -1.4725800241515765e+002 -3.1250000000000000e+002
        -1.3317775296677297e+002 -8.7095143587230464e+000
        -6.6575829449919908e+001</alpha>
      <index>
        0 1 2 3 4 5 6 7 8 9 10 11 12 13 14</index></_></decision_functions></my_svm>
</opencv_storage>
