<?xml version="1.0"?>
<opencv_storage>
<my_svm type_id="opencv-ml-svm">
  <svm_type>C_SVC</svm_type>
  <kernel><type>RBF</type>
    <gamma>5.0625000000000009e-001</gamma></kernel>
  <C>1.2500000000000000e+001</C>
  <term_criteria><epsilon>1.1920928955078125e-007</epsilon>
    <iterations>100</iterations></term_criteria>
  <var_all>12</var_all>
  <var_count>12</var_count>
  <class_count>2</class_count>
  <class_labels type_id="opencv-matrix">
    <rows>1</rows>
    <cols>2</cols>
    <dt>i</dt>
    <data>
      -1 1</data></class_labels>
  <sv_total>9</sv_total>
  <support_vectors>
    <_>
      5.97370684e-001 5.37087500e-001 3.09033841e-001 1.38326973e-001
      4.11242284e-002 8.38032812e-002 3.80161256e-002 4.62157100e-001
      6.25455081e-001 5.82533181e-001 3.96739960e-001 5.00000000e-001</_>
    <_>
      3.65120977e-001 2.95839787e-001 2.17019841e-001 2.05309063e-001
      6.56046495e-002 1.55519828e-001 1.91157982e-001 7.49313891e-001
      2.29913130e-001 4.22889382e-001 6.89988554e-001 6.25000000e-001</_>
    <_>
      3.04277003e-001 2.44198233e-001 8.67333487e-002 7.83971176e-002
      2.22818237e-002 7.53147155e-002 1.72603101e-001 8.37678015e-001
      1.98597237e-001 5.51971555e-001 8.03203404e-001 2.50000000e-001</_>
    <_>
      1. 1. 9.58919525e-001 8.45081508e-001 9.09027278e-001
      9.41914678e-001 6.27206117e-002 2.08394229e-001 1. 4.52174023e-002
      1.16262086e-001 1.</_>
    <_>
      9.63544071e-001 8.69415343e-001 1. 6.11777902e-001 5.63136578e-001
      6.40793383e-001 1. 5.00729792e-002 9.32437241e-001 3.89365256e-002
      3.26230861e-002 1.</_>
    <_>
      2.05026567e-001 1.22671664e-001 1.99413434e-001 1.08741477e-001
      3.32939923e-002 7.62370005e-002 1.55405059e-001 8.96229863e-001
      1.50753081e-001 6.92258894e-001 7.55959392e-001 2.50000000e-001</_>
    <_>
      3.45743924e-001 2.80053705e-001 2.13534176e-001 2.08318383e-001
      6.61015958e-002 1.51284799e-001 2.09308654e-001 8.26391160e-001
      2.16399789e-001 4.57328975e-001 7.28595495e-001 2.50000000e-001</_>
    <_>
      5.60805082e-001 5.59402585e-001 2.22997636e-001 2.42321104e-001
      8.04653689e-002 2.16855273e-001 2.27095231e-001 8.39755833e-001
      3.05208802e-001 5.86800158e-001 7.60404944e-001 2.50000000e-001</_>
    <_>
      7.44927764e-001 8.10521781e-001 7.02257693e-001 1. 1. 1.
      1.14045851e-001 8.21913242e-001 3.75685155e-001 5.57911396e-001
      6.42585933e-001 2.50000000e-001</_></support_vectors>
  <decision_functions>
    <_>
      <sv_count>9</sv_count>
      <rho>-9.2381272582834673e-001</rho>
      <alpha>
        2.7165494004838000e+000 5.1458535680786319e+000
        1.2500000000000000e+001 3.5237926060678826e-001
        1.1350091246132218e-001 1.9050634748331277e-001
        -1.2500000000000000e+001 -7.9125725422702446e+000
        -6.0621694684361305e-001</alpha>
      <index>
        0 1 2 3 4 5 6 7 8</index></_></decision_functions></my_svm>
</opencv_storage>
