<?xml version="1.0"?>
<opencv_storage>
<my_svm type_id="opencv-ml-svm">
  <svm_type>C_SVC</svm_type>
  <kernel><type>RBF</type>
    <gamma>5.0625000000000009e-001</gamma></kernel>
  <C>3.1250000000000000e+002</C>
  <term_criteria><epsilon>1.1920928955078125e-007</epsilon>
    <iterations>100</iterations></term_criteria>
  <var_all>12</var_all>
  <var_count>12</var_count>
  <class_count>2</class_count>
  <class_labels type_id="opencv-matrix">
    <rows>1</rows>
    <cols>2</cols>
    <dt>i</dt>
    <data>
      -1 1</data></class_labels>
  <sv_total>19</sv_total>
  <support_vectors>
    <_>
      8.36503431e-002 1.00036459e-002 5.42277507e-002 2.02309061e-002
      1.49565423e-002 3.83107737e-002 1.79542661e-001 5.69877148e-001
      2.00559780e-001 4.56941903e-001 6.52243435e-001 1.</_>
    <_>
      1.30499750e-001 4.39500762e-003 1.08937807e-001 4.11694311e-002
      1.31736416e-002 4.01367284e-002 1.55705810e-001 3.95519286e-001
      3.09457093e-001 2.90445864e-001 4.66092914e-001 0.</_>
    <_>
      1.44633263e-001 8.44088867e-002 4.43398841e-002 6.73033763e-003
      1.46957748e-002 3.75826173e-002 1.73782066e-001 5.05732417e-001
      3.19549739e-001 5.83042920e-001 5.95958531e-001 2.50000000e-001</_>
    <_>
      1.81631535e-001 1.29372358e-001 5.46213426e-003 1.76549759e-002
      1.48760751e-002 4.38998416e-002 1.74543530e-001 6.83177948e-001
      2.97449470e-001 8.01219165e-001 7.31770039e-001 1.</_>
    <_>
      1.20232359e-001 2.20219009e-002 8.20193365e-002 5.22439880e-003
      1.46872271e-002 3.64626497e-002 1.75531343e-001 3.13086301e-001
      5.52194893e-001 3.26508909e-001 4.55858171e-001 2.50000000e-001</_>
    <_>
      8.38446915e-002 3.82605387e-004 7.80155137e-002 9.45184511e-005
      1.46694900e-002 3.71543579e-002 1.74686521e-001 5.17071784e-001
      4.59192604e-001 6.84658110e-001 6.18908346e-001 5.00000000e-001</_>
    <_>
      7.82534108e-002 1.46952374e-002 3.88552509e-002 1.44093519e-003
      1.46717681e-002 3.72355804e-002 1.74592704e-001 5.87097228e-001
      3.01127613e-001 8.05811822e-001 6.31125331e-001 5.00000000e-001</_>
    <_>
      1.60430789e-001 5.82246147e-002 2.55398098e-002 4.45892699e-002
      1.60839055e-002 4.83315215e-002 1.81767777e-001 4.85871881e-001
      2.60934263e-001 3.99724215e-001 6.07187867e-001 1.</_>
    <_>
      1.09471127e-001 3.10448725e-002 4.39386182e-002 2.22076569e-002
      1.47498483e-002 3.94792445e-002 1.80052608e-001 5.46949446e-001
      2.39304185e-001 4.04553354e-001 6.54574811e-001 1.</_>
    <_>
      1.14378251e-001 1.13912590e-003 1.01681784e-001 2.85769608e-002
      1.45501969e-002 3.83099616e-002 1.86612353e-001 4.48395222e-001
      2.83176512e-001 5.18081427e-001 5.05131006e-001 1.</_>
    <_>
      1.13518484e-001 7.90240336e-003 2.61243861e-002 2.56548245e-002
      1.39525272e-002 3.86314206e-002 1.72540769e-001 4.27198797e-001
      2.85885632e-001 3.56816351e-001 5.30839324e-001 2.50000000e-001</_>
    <_>
      6.41364902e-002 0. 3.38100456e-002 9.03193490e-004 1.46739483e-002
      3.71519811e-002 1.74651965e-001 6.00132704e-001 3.53549242e-001
      7.23571360e-001 6.89102054e-001 5.00000000e-001</_>
    <_>
      9.92718264e-002 2.88888440e-002 4.25393060e-002 1.37387896e-002
      1.50237661e-002 3.96141969e-002 1.73541754e-001 4.61713731e-001
      3.80759716e-001 3.85639012e-001 5.70014775e-001 2.50000000e-001</_>
    <_>
      1.04102038e-001 1.68394868e-003 3.85114774e-002 2.21766508e-003
      1.46569218e-002 3.71839590e-002 1.74533606e-001 4.05221373e-001
      7.17161179e-001 7.44986176e-001 4.87762511e-001 5.00000000e-001</_>
    <_>
      1.51468158e-001 8.23822469e-002 1.74652487e-002 1.81710697e-003
      1.46717131e-002 3.67806703e-002 1.74765751e-001 5.63518107e-001
      5.63559294e-001 5.11779904e-001 7.32199669e-001 3.75000000e-001</_>
    <_>
      1.25812784e-001 5.19452468e-002 6.36931285e-002 3.06171039e-003
      1.46547137e-002 3.73609625e-002 1.74349889e-001 4.03622895e-001
      4.81756598e-001 5.00989318e-001 5.34906507e-001 1.</_>
    <_>
      1.60421476e-001 8.35095122e-002 4.42565754e-002 4.75219777e-003
      1.45859253e-002 3.61490026e-002 1.74624294e-001 3.36512089e-001
      4.57622528e-001 4.47888583e-001 5.37926137e-001 2.50000000e-001</_>
    <_>
      1.00422263e-001 1.23334210e-002 6.02408648e-002 1.99339283e-003
      1.46868918e-002 3.69019620e-002 1.74819186e-001 4.27056044e-001
      4.28093165e-001 5.54695845e-001 5.58889091e-001 2.50000000e-001</_>
    <_>
      7.21575990e-002 1.27771199e-002 8.08174349e-003 9.00007784e-003
      1.45948697e-002 3.78199480e-002 1.75045356e-001 5.18533945e-001
      2.66768366e-001 6.16347909e-001 6.11758411e-001 1.</_></support_vectors>
  <decision_functions>
    <_>
      <sv_count>19</sv_count>
      <rho>-4.5390951162005644e+000</rho>
      <alpha>
        1.1210819501801865e+001 1.2046364647541424e+001
        1.2403313595050162e+002 1.0605498563425094e+001
        7.2258810258482839e+001 5.0737846293619683e+001
        1.1132304250773950e+001 2.9733645967032711e+001
        7.0659301022122474e+000 1.1789019852571676e+002
        1.1652733927035964e+001 8.2099961159471935e+000
        1.2727923306252436e+001 6.2526467035062694e+001
        7.2673068719036777e+000 -8.7419196147246595e+001
        -6.5289506100397205e+001 -2.6133538108698508e+002
        -1.3505489798268130e+002</alpha>
      <index>
        0 1 2 3 4 5 6 7 8 9 10 11 12 13 14 15 16 17 18</index></_></decision_functions></my_svm>
</opencv_storage>
