<?xml version="1.0"?>
<opencv_storage>
<my_svm type_id="opencv-ml-svm">
  <svm_type>C_SVC</svm_type>
  <kernel><type>RBF</type>
    <gamma>5.0625000000000009e-001</gamma></kernel>
  <C>3.1250000000000000e+002</C>
  <term_criteria><epsilon>1.1920928955078125e-007</epsilon>
    <iterations>100</iterations></term_criteria>
  <var_all>12</var_all>
  <var_count>12</var_count>
  <class_count>2</class_count>
  <class_labels type_id="opencv-matrix">
    <rows>1</rows>
    <cols>2</cols>
    <dt>i</dt>
    <data>
      -1 1</data></class_labels>
  <sv_total>9</sv_total>
  <support_vectors>
    <_>
      1.52498335e-001 4.64300103e-002 2.10930005e-001 5.67923822e-002
      1.98899005e-002 4.42913808e-002 2.08438396e-001 5.59801340e-001
      2.26164654e-001 4.04651493e-001 5.69524348e-001 1.</_>
    <_>
      1.18894905e-001 1.22800050e-002 1.53175712e-001 1.01032136e-002
      1.51422173e-002 3.71682979e-002 1.74530730e-001 5.89581370e-001
      2.42129475e-001 4.43941474e-001 5.57970643e-001 1.</_>
    <_>
      1.40553430e-001 6.65453151e-002 8.60977992e-002 6.62985519e-002
      2.05599423e-002 5.54202534e-002 1.71943650e-001 5.87973773e-001
      2.13772148e-001 4.22533005e-001 7.11339712e-001 1.</_>
    <_>
      7.21575990e-002 1.27771199e-002 8.08174349e-003 9.00007784e-003
      1.45948697e-002 3.78199480e-002 1.75045356e-001 5.18533945e-001
      2.66768366e-001 6.16347909e-001 6.11758411e-001 1.</_>
    <_>
      1.79041266e-001 3.74180339e-002 7.34108388e-002 6.22489974e-002
      1.30430190e-002 4.99815196e-002 1.43897027e-001 3.62134576e-001
      3.29370379e-001 2.53697217e-001 4.24662173e-001 1.</_>
    <_>
      1.14378251e-001 1.13912590e-003 1.01681784e-001 2.85769608e-002
      1.45501969e-002 3.83099616e-002 1.86612353e-001 4.48395222e-001
      2.83176512e-001 5.18081427e-001 5.05131006e-001 1.</_>
    <_>
      1.31763592e-001 5.89894876e-003 1.65917009e-001 2.52108090e-002
      1.41218156e-002 3.50289382e-002 1.86820939e-001 4.81135160e-001
      2.31120884e-001 4.07274723e-001 4.58096266e-001 1.</_>
    <_>
      1.60430789e-001 5.82246147e-002 2.55398098e-002 4.45892699e-002
      1.60839055e-002 4.83315215e-002 1.81767777e-001 4.85871881e-001
      2.60934263e-001 3.99724215e-001 6.07187867e-001 1.</_>
    <_>
      1.60430789e-001 5.82246147e-002 2.55398098e-002 4.45892699e-002
      1.60839055e-002 4.83315215e-002 1.81767777e-001 4.85871881e-001
      2.60934263e-001 3.99724215e-001 6.07187867e-001 1.</_></support_vectors>
  <decision_functions>
    <_>
      <sv_count>9</sv_count>
      <rho>-1.6160364390493587e+001</rho>
      <alpha>
        2.8083200816897715e+002 7.1086626765074783e+001
        4.0228167016251541e+000 3.1250000000000000e+002
        3.1174488450569294e+002 -2.4084449563547412e+002
        -3.1250000000000000e+002 -3.1211681860229999e+002
        -1.1472502190359580e+002</alpha>
      <index>
        0 1 2 3 4 5 6 7 8</index></_></decision_functions></my_svm>
</opencv_storage>
