<?xml version="1.0"?>
<opencv_storage>
<my_svm type_id="opencv-ml-svm">
  <svm_type>C_SVC</svm_type>
  <kernel><type>RBF</type>
    <gamma>5.0625000000000009e-001</gamma></kernel>
  <C>3.1250000000000000e+002</C>
  <term_criteria><epsilon>1.1920928955078125e-007</epsilon>
    <iterations>100</iterations></term_criteria>
  <var_all>12</var_all>
  <var_count>12</var_count>
  <class_count>2</class_count>
  <class_labels type_id="opencv-matrix">
    <rows>1</rows>
    <cols>2</cols>
    <dt>i</dt>
    <data>
      -1 1</data></class_labels>
  <sv_total>12</sv_total>
  <support_vectors>
    <_>
      4.22660053e-001 2.16085002e-001 3.07220608e-001 5.82240596e-002
      2.37705447e-002 6.36692718e-002 1.82448208e-001 5.15557766e-001
      4.22191292e-001 4.26611841e-001 3.24723184e-001 3.75000000e-001</_>
    <_>
      2.28837103e-001 1.42053574e-001 1.39297824e-002 6.54690387e-003
      1.45971589e-002 3.98089848e-002 1.74530312e-001 5.66992939e-001
      3.54454219e-001 6.47487283e-001 6.42184138e-001 3.75000000e-001</_>
    <_>
      6.12086236e-001 6.13449931e-001 3.01904887e-001 2.90624589e-001
      1.13591045e-001 2.48660475e-001 3.17115158e-001 7.91199565e-001
      2.73225218e-001 6.84766054e-001 7.20167577e-001 2.50000000e-001</_>
    <_>
      2.36163571e-001 1.34743005e-001 1.63496241e-001 7.54336119e-002
      2.28270274e-002 4.86055352e-002 2.11162150e-001 5.74608326e-001
      2.80982047e-001 4.75077122e-001 6.05413496e-001 1.</_>
    <_>
      2.96555668e-001 2.37181351e-001 3.82190570e-002 7.75568001e-003
      1.46481153e-002 3.69664133e-002 1.75724253e-001 6.61233962e-001
      1.86844677e-001 3.00228834e-001 7.59709835e-001 1.</_>
    <_>
      3.07475090e-001 2.48636067e-001 2.49187071e-002 3.92120220e-002
      1.61192492e-002 5.63850068e-002 1.74693376e-001 6.83250606e-001
      3.85868609e-001 7.73475111e-001 7.60272801e-001 2.50000000e-001</_>
    <_>
      3.00940603e-001 2.15854168e-001 2.24058423e-002 5.99921420e-002
      1.71724688e-002 6.63081780e-002 1.70070231e-001 5.90720236e-001
      4.44079071e-001 6.56662226e-001 6.71473980e-001 3.75000000e-001</_>
    <_>
      3.65120977e-001 2.95839787e-001 2.17019841e-001 2.05309063e-001
      6.56046495e-002 1.55519828e-001 1.91157982e-001 7.49313891e-001
      2.29913130e-001 4.22889382e-001 6.89988554e-001 6.25000000e-001</_>
    <_>
      5.97370684e-001 5.37087500e-001 3.09033841e-001 1.38326973e-001
      4.11242284e-002 8.38032812e-002 3.80161256e-002 4.62157100e-001
      6.25455081e-001 5.82533181e-001 3.96739960e-001 5.00000000e-001</_>
    <_>
      3.80630493e-001 2.90947348e-001 1.72709763e-001 2.51720734e-002
      1.34216724e-002 2.56025251e-002 1.64733469e-001 5.59401870e-001
      3.18871826e-001 5.09007156e-001 5.22885621e-001 5.00000000e-001</_>
    <_>
      4.38069999e-001 2.68873215e-001 4.95065212e-001 7.26700127e-002 0.
      0. 1.28981799e-001 4.14789200e-001 3.63921136e-001 3.43073934e-001
      3.20280343e-001 5.00000000e-001</_>
    <_>
      3.83639723e-001 2.29764223e-001 3.95519614e-001 5.95385097e-002
      4.05452866e-003 6.54296903e-003 1.62809610e-001 5.35607219e-001
      4.05209839e-001 5.51547408e-001 4.60808009e-001 3.75000000e-001</_></support_vectors>
  <decision_functions>
    <_>
      <sv_count>12</sv_count>
      <rho>-4.9410128746295392e+000</rho>
      <alpha>
        7.6686195751578680e+001 7.5620671613661212e+000
        1.9452043608692164e+000 1.0849414525782365e+001
        1.0207995665588445e+000 8.8862469652285583e+000
        6.6485936592909844e+000 1.2755101789200429e+001
        -8.6470761067483548e-001 -7.3722823427719590e+001
        -1.2089662820282561e+001 -3.9676429921198249e+001</alpha>
      <index>
        0 1 2 3 4 5 6 7 8 9 10 11</index></_></decision_functions></my_svm>
</opencv_storage>
