<?xml version="1.0"?>
<opencv_storage>
<my_svm type_id="opencv-ml-svm">
  <svm_type>C_SVC</svm_type>
  <kernel><type>RBF</type>
    <gamma>5.0625000000000009e-001</gamma></kernel>
  <C>6.2500000000000000e+001</C>
  <term_criteria><epsilon>1.1920928955078125e-007</epsilon>
    <iterations>100</iterations></term_criteria>
  <var_all>12</var_all>
  <var_count>12</var_count>
  <class_count>2</class_count>
  <class_labels type_id="opencv-matrix">
    <rows>1</rows>
    <cols>2</cols>
    <dt>i</dt>
    <data>
      -1 1</data></class_labels>
  <sv_total>9</sv_total>
  <support_vectors>
    <_>
      2.30332345e-001 7.99245238e-002 4.78630625e-002 5.03721610e-002
      1.27175143e-002 5.22987060e-002 1.60420224e-001 4.22761410e-001
      3.93543214e-001 3.10171694e-001 5.12227714e-001 1.</_>
    <_>
      1.20232359e-001 2.20219009e-002 8.20193365e-002 5.22439880e-003
      1.46872271e-002 3.64626497e-002 1.75531343e-001 3.13086301e-001
      5.52194893e-001 3.26508909e-001 4.55858171e-001 2.50000000e-001</_>
    <_>
      3.31755787e-001 1.50735661e-001 1.20587803e-001 6.36964664e-002
      1.79862343e-002 6.28367886e-002 1.37366682e-001 3.95375371e-001
      4.07256842e-001 2.90615618e-001 3.57572138e-001 2.50000000e-001</_>
    <_>
      9.92718264e-002 2.88888440e-002 4.25393060e-002 1.37387896e-002
      1.50237661e-002 3.96141969e-002 1.73541754e-001 4.61713731e-001
      3.80759716e-001 3.85639012e-001 5.70014775e-001 2.50000000e-001</_>
    <_>
      1.31763592e-001 5.89894876e-003 1.65917009e-001 2.52108090e-002
      1.41218156e-002 3.50289382e-002 1.86820939e-001 4.81135160e-001
      2.31120884e-001 4.07274723e-001 4.58096266e-001 1.</_>
    <_>
      1.79041266e-001 3.74180339e-002 7.34108388e-002 6.22489974e-002
      1.30430190e-002 4.99815196e-002 1.43897027e-001 3.62134576e-001
      3.29370379e-001 2.53697217e-001 4.24662173e-001 1.</_>
    <_>
      1.13518484e-001 7.90240336e-003 2.61243861e-002 2.56548245e-002
      1.39525272e-002 3.86314206e-002 1.72540769e-001 4.27198797e-001
      2.85885632e-001 3.56816351e-001 5.30839324e-001 2.50000000e-001</_>
    <_>
      1.93403870e-001 5.99188730e-002 6.90510273e-002 1.12514347e-001
      2.57344507e-002 6.67431355e-002 1.50025770e-001 3.91580343e-001
      3.52540344e-001 2.32574850e-001 4.94954318e-001 2.50000000e-001</_>
    <_>
      1.68610632e-001 2.67724544e-002 1.00470312e-001 6.83845431e-002
      1.51870167e-002 4.91676889e-002 1.30943865e-001 3.72177869e-001
      3.42818171e-001 2.82764792e-001 4.38651294e-001 2.50000000e-001</_></support_vectors>
  <decision_functions>
    <_>
      <sv_count>9</sv_count>
      <rho>-1.5485941328597621e+000</rho>
      <alpha>
        3.3477630768705389e+001 9.1655782278718636e+000
        3.1686977757207767e+001 6.2500000000000000e+001
        2.9671555987874502e+001 -6.2500000000000000e+001
        -6.2500000000000000e+001 -1.3495771715270820e+001
        -2.8005971026388668e+001</alpha>
      <index>
        0 1 2 3 4 5 6 7 8</index></_></decision_functions></my_svm>
</opencv_storage>
