<?xml version="1.0"?>
<opencv_storage>
<my_svm type_id="opencv-ml-svm">
  <svm_type>C_SVC</svm_type>
  <kernel><type>RBF</type>
    <gamma>5.0625000000000009e-001</gamma></kernel>
  <C>6.2500000000000000e+001</C>
  <term_criteria><epsilon>1.1920928955078125e-007</epsilon>
    <iterations>100</iterations></term_criteria>
  <var_all>12</var_all>
  <var_count>12</var_count>
  <class_count>2</class_count>
  <class_labels type_id="opencv-matrix">
    <rows>1</rows>
    <cols>2</cols>
    <dt>i</dt>
    <data>
      -1 1</data></class_labels>
  <sv_total>18</sv_total>
  <support_vectors>
    <_>
      3.87184411e-001 3.62836450e-001 4.45753895e-003 7.49954605e-004
      1.46674262e-002 3.66105288e-002 1.74674436e-001 8.18800688e-001
      1.71714202e-001 3.05408865e-001 8.74624252e-001 1.</_>
    <_>
      1.30499750e-001 4.39500762e-003 1.08937807e-001 4.11694311e-002
      1.31736416e-002 4.01367284e-002 1.55705810e-001 3.95519286e-001
      3.09457093e-001 2.90445864e-001 4.66092914e-001 0.</_>
    <_>
      4.22660053e-001 2.16085002e-001 3.07220608e-001 5.82240596e-002
      2.37705447e-002 6.36692718e-002 1.82448208e-001 5.15557766e-001
      4.22191292e-001 4.26611841e-001 3.24723184e-001 3.75000000e-001</_>
    <_>
      2.34556735e-001 1.06181942e-001 8.10166597e-002 7.80587317e-003
      1.48626640e-002 3.82088497e-002 1.73808128e-001 5.46249568e-001
      6.36491477e-001 4.71666336e-001 5.51565588e-001 2.50000000e-001</_>
    <_>
      1.79041266e-001 3.74180339e-002 7.34108388e-002 6.22489974e-002
      1.30430190e-002 4.99815196e-002 1.43897027e-001 3.62134576e-001
      3.29370379e-001 2.53697217e-001 4.24662173e-001 1.</_>
    <_>
      1.68610632e-001 2.67724544e-002 1.00470312e-001 6.83845431e-002
      1.51870167e-002 4.91676889e-002 1.30943865e-001 3.72177869e-001
      3.42818171e-001 2.82764792e-001 4.38651294e-001 2.50000000e-001</_>
    <_>
      1.93403870e-001 5.99188730e-002 6.90510273e-002 1.12514347e-001
      2.57344507e-002 6.67431355e-002 1.50025770e-001 3.91580343e-001
      3.52540344e-001 2.32574850e-001 4.94954318e-001 2.50000000e-001</_>
    <_>
      2.30332345e-001 7.99245238e-002 4.78630625e-002 5.03721610e-002
      1.27175143e-002 5.22987060e-002 1.60420224e-001 4.22761410e-001
      3.93543214e-001 3.10171694e-001 5.12227714e-001 1.</_>
    <_>
      1.70919210e-001 2.83017103e-002 4.45131809e-002 5.95447943e-002
      1.45857539e-002 4.76323590e-002 1.50933251e-001 5.68374634e-001
      3.63161027e-001 5.04111350e-001 5.31471968e-001 1.</_>
    <_>
      8.93845379e-001 8.26009393e-001 3.96871001e-001 2.14789838e-001
      8.34872276e-002 2.24641189e-001 0. 8.05081353e-002 9.54007030e-001
      1.42918050e-001 1.46939695e-001 1.</_>
    <_>
      3.11244607e-001 2.27422684e-001 1.23513192e-002 5.83100542e-002
      1.65211577e-002 6.59770444e-002 1.74009159e-001 6.29490137e-001
      3.56993049e-001 5.45217872e-001 6.23607993e-001 2.50000000e-001</_>
    <_>
      4.85151052e-001 3.11887413e-001 3.79215747e-001 1.11482024e-001
      1.79600678e-002 1.81175824e-002 3.50531042e-001 3.86762381e-001
      5.99940479e-001 2.61514485e-001 3.21173370e-001 1.</_>
    <_>
      2.43102729e-001 1.57992303e-001 1.20240070e-001 2.96247862e-002
      1.58162620e-002 3.42542082e-002 1.86147705e-001 7.54355073e-001
      2.45763853e-001 2.58220106e-001 6.43483520e-001 1.</_>
    <_>
      3.31755787e-001 1.50735661e-001 1.20587803e-001 6.36964664e-002
      1.79862343e-002 6.28367886e-002 1.37366682e-001 3.95375371e-001
      4.07256842e-001 2.90615618e-001 3.57572138e-001 2.50000000e-001</_>
    <_>
      2.91287422e-001 1.48839086e-001 4.98852096e-002 4.46840972e-002
      1.42749147e-002 5.54464348e-002 1.58530578e-001 4.67078745e-001
      3.88750702e-001 3.18709910e-001 4.52649444e-001 2.50000000e-001</_>
    <_>
      3.61327529e-001 1.93689764e-001 1.30523965e-001 2.60906871e-002
      1.60879586e-002 4.60961014e-002 1.67407840e-001 5.39207041e-001
      4.24805582e-001 2.62863487e-001 4.26049560e-001 2.50000000e-001</_>
    <_>
      3.51992399e-001 2.08719358e-001 7.13035390e-002 5.10024242e-002
      1.68040749e-002 6.19979650e-002 1.55414268e-001 5.48343122e-001
      3.81489992e-001 3.08857679e-001 4.81445938e-001 1.</_>
    <_>
      2.14179754e-001 3.00259385e-002 7.24975318e-002 5.56166694e-002
      1.21424971e-002 4.36227284e-002 1.52932659e-001 5.00484109e-001
      3.89282227e-001 4.31684285e-001 3.64391387e-001 1.</_></support_vectors>
  <decision_functions>
    <_>
      <sv_count>18</sv_count>
      <rho>-3.1817575035999264e+000</rho>
      <alpha>
        3.4638019527991554e-001 1.5440412371234178e+000
        6.2500000000000000e+001 3.2803784203059330e+000
        1.7502203656323001e+001 3.4759525503681656e+000
        5.2904449941557701e+001 6.2500000000000000e+001
        1.6480076083181057e+001 1.4507168668310535e+000
        1.4895088456253267e+001 1.9478902833482175e+000
        3.3491856102872517e+000 -5.4751347760429447e+001
        -6.2500000000000000e+001 -1.1008491460479526e+001
        -5.1416524079950037e+001 -6.2500000000000000e+001</alpha>
      <index>
        0 1 2 3 4 5 6 7 8 9 10 11 12 13 14 15 16 17</index></_></decision_functions></my_svm>
</opencv_storage>
