<?xml version="1.0"?>
<opencv_storage>
<my_svm type_id="opencv-ml-svm">
  <svm_type>C_SVC</svm_type>
  <kernel><type>RBF</type>
    <gamma>5.0625000000000009e-001</gamma></kernel>
  <C>2.5000000000000000e+000</C>
  <term_criteria><epsilon>1.1920928955078125e-007</epsilon>
    <iterations>100</iterations></term_criteria>
  <var_all>12</var_all>
  <var_count>12</var_count>
  <class_count>2</class_count>
  <class_labels type_id="opencv-matrix">
    <rows>1</rows>
    <cols>2</cols>
    <dt>i</dt>
    <data>
      -1 1</data></class_labels>
  <sv_total>8</sv_total>
  <support_vectors>
    <_>
      6.32344410e-002 5.68050630e-002 5.30915568e-003 4.36475675e-004
      1.46681042e-002 3.70331481e-002 1.74678266e-001 9.89017546e-001
      3.33492123e-002 9.59161997e-001 9.95191514e-001 2.50000000e-001</_>
    <_>
      5.97370684e-001 5.37087500e-001 3.09033841e-001 1.38326973e-001
      4.11242284e-002 8.38032812e-002 3.80161256e-002 4.33806092e-001
      6.25455081e-001 5.65619886e-001 3.76396060e-001 5.00000000e-001</_>
    <_>
      7.44927764e-001 8.10521781e-001 7.02257693e-001 1. 1. 1.
      1.14045851e-001 8.12525868e-001 3.75685155e-001 5.40000618e-001
      6.30532801e-001 2.50000000e-001</_>
    <_>
      0. 8.84273183e-003 1.49011076e-003 3.69584814e-005 1.46690123e-002
      3.71579379e-002 1.74682602e-001 9.71109033e-001 0. 1.
      9.99999940e-001 1.</_>
    <_>
      4.85151052e-001 3.11887413e-001 3.79215747e-001 1.11482024e-001
      1.79600678e-002 1.81175824e-002 3.50531042e-001 3.54437113e-001
      5.99940479e-001 2.31595501e-001 2.98281133e-001 1.</_>
    <_>
      9.63544071e-001 8.69415343e-001 1. 6.11777902e-001 5.63136578e-001
      6.40793383e-001 1. 0. 9.32437241e-001 0. 0. 1.</_>
    <_>
      8.93845379e-001 8.26009393e-001 3.96871001e-001 2.14789838e-001
      8.34872276e-002 2.24641189e-001 0. 3.20394672e-002 9.54007030e-001
      1.08194232e-001 1.18171729e-001 1.</_>
    <_>
      1. 1. 9.58919525e-001 8.45081508e-001 9.09027278e-001
      9.41914678e-001 6.27206117e-002 1.66666761e-001 1. 6.53534196e-003
      8.64595771e-002 1.</_></support_vectors>
  <decision_functions>
    <_>
      <sv_count>8</sv_count>
      <rho>-1.9999359935244618e-001</rho>
      <alpha>
        4.5001288320845940e-002 8.4564789377977434e-001
        1.0436198813445907e+000 6.9434196569982745e-002
        1.8896974506242499e+000 -7.0695068120957361e-001
        -2.5000000000000000e+000 -6.8645002942986955e-001</alpha>
      <index>
        0 1 2 3 4 5 6 7</index></_></decision_functions></my_svm>
</opencv_storage>
