<?xml version="1.0"?>
<opencv_storage>
<my_svm type_id="opencv-ml-svm">
  <svm_type>C_SVC</svm_type>
  <kernel><type>RBF</type>
    <gamma>5.0625000000000009e-001</gamma></kernel>
  <C>6.2500000000000000e+001</C>
  <term_criteria><epsilon>1.1920928955078125e-007</epsilon>
    <iterations>100</iterations></term_criteria>
  <var_all>12</var_all>
  <var_count>12</var_count>
  <class_count>2</class_count>
  <class_labels type_id="opencv-matrix">
    <rows>1</rows>
    <cols>2</cols>
    <dt>i</dt>
    <data>
      -1 1</data></class_labels>
  <sv_total>11</sv_total>
  <support_vectors>
    <_>
      6.32344410e-002 5.68050630e-002 5.30915568e-003 4.36475675e-004
      1.46681042e-002 3.70331481e-002 1.74678266e-001 9.89567518e-001
      3.33492123e-002 9.60752130e-001 9.95348394e-001 2.50000000e-001</_>
    <_>
      3.07475090e-001 2.48636067e-001 2.49187071e-002 3.92120220e-002
      1.61192492e-002 5.63850068e-002 1.74693376e-001 6.83250606e-001
      3.85868609e-001 7.73475111e-001 7.60272801e-001 2.50000000e-001</_>
    <_>
      3.45743924e-001 2.80053705e-001 2.13534176e-001 2.08318383e-001
      6.61015958e-002 1.51284799e-001 2.09308654e-001 8.26391160e-001
      2.16399789e-001 4.57328975e-001 7.28595495e-001 2.50000000e-001</_>
    <_>
      1.20550700e-001 1.01806432e-001 1.25006270e-002 3.22947279e-003
      1.46863209e-002 3.76360342e-002 1.74803168e-001 9.76700485e-001
      7.69292861e-002 9.53327239e-001 9.68702674e-001 2.50000000e-001</_>
    <_>
      1.59893006e-001 1.27122298e-001 2.74930708e-003 4.96797822e-003
      1.46908062e-002 3.90706435e-002 1.74639896e-001 8.65548670e-001
      1.31330952e-001 4.54674065e-001 9.17826891e-001 2.50000000e-001</_>
    <_>
      7.54937232e-002 5.11762127e-002 2.87010595e-002 3.17849708e-003
      1.46321980e-002 3.64163518e-002 1.74724996e-001 9.17104661e-001
      3.67036052e-002 8.30073178e-001 9.00892913e-001 3.75000000e-001</_>
    <_>
      1.73663586e-001 1.23744145e-001 7.31289238e-002 4.98672687e-002
      1.82102621e-002 5.45543730e-002 1.72753885e-001 9.20092285e-001
      1.25869527e-001 8.16277325e-001 8.62442732e-001 2.50000000e-001</_>
    <_>
      2.05026567e-001 1.22671664e-001 1.99413434e-001 1.08741477e-001
      3.32939923e-002 7.62370005e-002 1.55405059e-001 8.96229863e-001
      1.50753081e-001 6.92258894e-001 7.55959392e-001 2.50000000e-001</_>
    <_>
      3.04277003e-001 2.44198233e-001 8.67333487e-002 7.83971176e-002
      2.22818237e-002 7.53147155e-002 1.72603101e-001 8.37678015e-001
      1.98597237e-001 5.51971555e-001 8.03203404e-001 2.50000000e-001</_>
    <_>
      2.44255751e-001 2.01524064e-001 5.09206392e-002 4.61316407e-002
      1.73008125e-002 5.81059121e-002 1.73313990e-001 8.71544421e-001
      1.56966180e-001 9.24708843e-001 8.86175752e-001 2.50000000e-001</_>
    <_>
      1.89705566e-001 1.45847127e-001 7.13580251e-002 5.15193939e-002
      1.83467418e-002 5.80073148e-002 1.73084855e-001 8.75881493e-001
      1.28002465e-001 7.07289755e-001 9.13047254e-001 2.50000000e-001</_></support_vectors>
  <decision_functions>
    <_>
      <sv_count>11</sv_count>
      <rho>-1.0221978191667763e+001</rho>
      <alpha>
        1.0705804440509612e+001 4.4470168341500980e+001
        5.8168241670196196e+001 6.2500000000000000e+001
        3.1398504761875365e+001 3.5261891369135142e+001
        -6.2500000000000000e+001 -1.4547884540913364e+001
        -6.2500000000000000e+001 -4.0456726042303934e+001
        -6.2500000000000000e+001</alpha>
      <index>
        0 1 2 3 4 5 6 7 8 9 10</index></_></decision_functions></my_svm>
</opencv_storage>
