<?xml version="1.0"?>
<opencv_storage>
<my_svm type_id="opencv-ml-svm">
  <svm_type>C_SVC</svm_type>
  <kernel><type>RBF</type>
    <gamma>5.0625000000000009e-001</gamma></kernel>
  <C>3.1250000000000000e+002</C>
  <term_criteria><epsilon>1.1920928955078125e-007</epsilon>
    <iterations>100</iterations></term_criteria>
  <var_all>12</var_all>
  <var_count>12</var_count>
  <class_count>2</class_count>
  <class_labels type_id="opencv-matrix">
    <rows>1</rows>
    <cols>2</cols>
    <dt>i</dt>
    <data>
      -1 1</data></class_labels>
  <sv_total>16</sv_total>
  <support_vectors>
    <_>
      1.91373110e-001 1.24120548e-001 2.16227192e-002 2.46251449e-002
      1.53319556e-002 4.25694510e-002 1.73884660e-001 6.87762499e-001
      2.99867898e-001 4.78383362e-001 7.56824255e-001 2.50000000e-001</_>
    <_>
      1.25812784e-001 5.19452468e-002 6.36931285e-002 3.06171039e-003
      1.46547137e-002 3.73609625e-002 1.74349889e-001 4.03622895e-001
      4.81756598e-001 5.00989318e-001 5.34906507e-001 1.</_>
    <_>
      3.07475090e-001 2.48636067e-001 2.49187071e-002 3.92120220e-002
      1.61192492e-002 5.63850068e-002 1.74693376e-001 6.83250606e-001
      3.85868609e-001 7.73475111e-001 7.60272801e-001 2.50000000e-001</_>
    <_>
      8.38446915e-002 3.82605387e-004 7.80155137e-002 9.45184511e-005
      1.46694900e-002 3.71543579e-002 1.74686521e-001 5.17071784e-001
      4.59192604e-001 6.84658110e-001 6.18908346e-001 5.00000000e-001</_>
    <_>
      1.65347502e-001 1.07685938e-001 6.50496036e-003 7.57267606e-003
      1.46978013e-002 3.96532267e-002 1.74304649e-001 7.42116570e-001
      2.41080597e-001 4.23785985e-001 7.68571138e-001 1.</_>
    <_>
      1.75446182e-001 8.57521966e-002 7.53095150e-002 6.68558106e-003
      1.44960647e-002 3.53201181e-002 1.74349859e-001 3.68369401e-001
      4.99856412e-001 3.36910635e-001 5.10353684e-001 2.50000000e-001</_>
    <_>
      1.02955572e-001 1.84777267e-002 1.41489610e-001 2.12214682e-002
      1.56574100e-002 3.97671834e-002 1.80972785e-001 5.49819171e-001
      3.08036417e-001 3.66949558e-001 5.16103327e-001 1.</_>
    <_>
      1.94024459e-001 1.35401130e-001 1.07445347e-003 1.15346536e-002
      1.47205172e-002 4.11050245e-002 1.74680308e-001 6.63705349e-001
      3.04960370e-001 3.09749365e-001 7.45320320e-001 2.50000000e-001</_>
    <_>
      1.49877310e-001 5.58048859e-002 2.39570141e-002 2.24968195e-002
      1.45834628e-002 4.28517237e-002 1.70652896e-001 5.95564008e-001
      3.20040882e-001 3.77260923e-001 6.22859359e-001 1.</_>
    <_>
      1.89198285e-001 9.12077948e-002 1.93514191e-002 2.87781563e-002
      1.47903217e-002 4.57085297e-002 1.69455662e-001 5.82762241e-001
      3.71610492e-001 5.42330503e-001 6.03512704e-001 2.50000000e-001</_>
    <_>
      1.40639275e-001 5.44905802e-003 5.23978062e-002 0. 1.46688307e-002
      3.71559039e-002 1.74683556e-001 5.53339958e-001 8.00442815e-001
      7.64499664e-001 5.08435369e-001 3.75000000e-001</_>
    <_>
      1.51468158e-001 8.23822469e-002 1.74652487e-002 1.81710697e-003
      1.46717131e-002 3.67806703e-002 1.74765751e-001 5.63518107e-001
      5.63559294e-001 5.11779904e-001 7.32199669e-001 3.75000000e-001</_>
    <_>
      1.02905512e-001 7.44368322e-003 7.16096684e-002 4.96379286e-003
      1.47811100e-002 3.70179415e-002 1.74782753e-001 5.87942421e-001
      4.22801763e-001 4.36372817e-001 5.97486258e-001 1.</_>
    <_>
      2.34556735e-001 1.06181942e-001 8.10166597e-002 7.80587317e-003
      1.48626640e-002 3.82088497e-002 1.73808128e-001 5.46249568e-001
      6.36491477e-001 4.71666336e-001 5.51565588e-001 2.50000000e-001</_>
    <_>
      1.67031199e-001 9.51080471e-002 3.70720252e-002 1.52917940e-003
      1.46637661e-002 3.66287343e-002 1.74773231e-001 6.57669902e-001
      4.37032372e-001 5.63675940e-001 6.96710467e-001 2.50000000e-001</_>
    <_>
      1.44389018e-001 8.59813690e-002 1.07507594e-002 2.03906465e-003
      1.46624520e-002 3.77834961e-002 1.74615562e-001 6.85587585e-001
      4.78509843e-001 6.85661972e-001 7.76048362e-001 2.50000000e-001</_></support_vectors>
  <decision_functions>
    <_>
      <sv_count>16</sv_count>
      <rho>-7.0001817501562273e+000</rho>
      <alpha>
        1.1128560026656052e+002 3.1596069933937727e+001
        1.9867018570854320e+000 2.7506072621783893e+001
        7.0619033128383002e+000 5.9147638801227460e+000
        2.9841815717677406e+001 1.8272737355262361e+001
        8.6425956483072881e+001 5.8277098710919262e+000
        7.7148756168079558e+001 -4.2320829160880029e+000
        -1.7890186504740930e+002 -4.2536503685303195e+001
        -1.6176146516209997e+002 -1.5436170656612296e+001</alpha>
      <index>
        0 1 2 3 4 5 6 7 8 9 10 11 12 13 14 15</index></_></decision_functions></my_svm>
</opencv_storage>
