<?xml version="1.0"?>
<opencv_storage>
<my_svm type_id="opencv-ml-svm">
  <svm_type>C_SVC</svm_type>
  <kernel><type>RBF</type>
    <gamma>5.0625000000000009e-001</gamma></kernel>
  <C>1.2500000000000000e+001</C>
  <term_criteria><epsilon>1.1920928955078125e-007</epsilon>
    <iterations>100</iterations></term_criteria>
  <var_all>12</var_all>
  <var_count>12</var_count>
  <class_count>2</class_count>
  <class_labels type_id="opencv-matrix">
    <rows>1</rows>
    <cols>2</cols>
    <dt>i</dt>
    <data>
      -1 1</data></class_labels>
  <sv_total>9</sv_total>
  <support_vectors>
    <_>
      8.10130537e-002 6.30837679e-002 1.65381804e-002 3.71978641e-003
      1.47005189e-002 3.77010927e-002 1.74572244e-001 9.25410092e-001
      6.55210912e-002 8.71307194e-001 9.49247956e-001 3.75000000e-001</_>
    <_>
      1.49600536e-001 9.40730050e-002 9.31956470e-002 5.76990992e-002
      1.96567718e-002 5.61350249e-002 1.73771590e-001 8.45757008e-001
      1.50330365e-001 5.88839471e-001 8.05082083e-001 1.</_>
    <_>
      3.41129825e-002 3.25868651e-002 8.36018287e-003 9.53047595e-004
      1.46712391e-002 3.72583196e-002 1.74663454e-001 9.70038652e-001
      2.89883893e-002 9.33035672e-001 9.87605274e-001 2.50000000e-001</_>
    <_>
      1.41466245e-001 9.89480615e-002 2.69641168e-002 1.05666155e-002
      1.48590654e-002 3.80181819e-002 1.75312892e-001 8.33974540e-001
      1.26996294e-001 4.87511277e-001 8.45369875e-001 1.</_>
    <_>
      8.22266713e-002 5.13122007e-002 1.32155344e-002 7.91079178e-003
      1.47661157e-002 3.88438851e-002 1.74715519e-001 8.31611812e-001
      1.02067105e-001 4.68694746e-001 8.53203177e-001 1.</_>
    <_>
      1.36953657e-002 1.31305689e-002 1.82961556e-003 1.52957567e-004
      1.46688242e-002 3.71260978e-002 1.74681351e-001 9.38125074e-001
      2.62870789e-002 6.31006658e-001 9.85860109e-001 2.50000000e-001</_>
    <_>
      7.60139152e-002 6.09177202e-002 4.72263945e-003 3.39436578e-004
      1.46683911e-002 3.70578021e-002 1.74679264e-001 9.96134281e-001
      4.61234264e-002 6.58340156e-001 9.61189210e-001 1.</_>
    <_>
      9.28847417e-002 7.29830638e-002 8.31667706e-003 4.44607140e-004
      1.46679487e-002 3.70234586e-002 1.74676508e-001 8.93045962e-001
      5.55242859e-002 9.28468287e-001 9.31425333e-001 1.</_>
    <_>
      4.44420688e-002 2.67952178e-002 4.02151197e-002 3.15956702e-003
      1.47115476e-002 3.77125517e-002 1.74615592e-001 1. 2.72918828e-002
      6.94516420e-001 9.00897980e-001 1.</_></support_vectors>
  <decision_functions>
    <_>
      <sv_count>9</sv_count>
      <rho>-9.1987048009300076e-001</rho>
      <alpha>
        9.1149307332529048e+000 1.2500000000000000e+001
        8.6848456268330469e+000 3.2273814369752039e+000
        1.2500000000000000e+001 -1.2500000000000000e+001
        -1.2500000000000000e+001 -8.5271577970611645e+000
        -1.2500000000000000e+001</alpha>
      <index>
        0 1 2 3 4 5 6 7 8</index></_></decision_functions></my_svm>
</opencv_storage>
