<?xml version="1.0"?>
<opencv_storage>
<my_svm type_id="opencv-ml-svm">
  <svm_type>C_SVC</svm_type>
  <kernel><type>RBF</type>
    <gamma>5.0625000000000009e-001</gamma></kernel>
  <C>3.1250000000000000e+002</C>
  <term_criteria><epsilon>1.1920928955078125e-007</epsilon>
    <iterations>100</iterations></term_criteria>
  <var_all>12</var_all>
  <var_count>12</var_count>
  <class_count>2</class_count>
  <class_labels type_id="opencv-matrix">
    <rows>1</rows>
    <cols>2</cols>
    <dt>i</dt>
    <data>
      -1 1</data></class_labels>
  <sv_total>10</sv_total>
  <support_vectors>
    <_>
      2.23785758e-001 1.81166515e-001 5.72604947e-002 2.87064165e-002
      1.60070024e-002 4.91492487e-002 1.72560439e-001 8.16039383e-001
      1.66390851e-001 3.49300802e-001 8.48846138e-001 6.25000000e-001</_>
    <_>
      3.04277003e-001 2.44198233e-001 8.67333487e-002 7.83971176e-002
      2.22818237e-002 7.53147155e-002 1.72603101e-001 8.37678015e-001
      1.98597237e-001 5.51971555e-001 8.03203404e-001 2.50000000e-001</_>
    <_>
      2.83091277e-001 2.35590458e-001 1.38148712e-002 1.14470916e-002
      1.48385009e-002 4.13404815e-002 1.74879536e-001 8.35333407e-001
      2.00897649e-001 3.64376783e-001 8.35945427e-001 1.</_>
    <_>
      1.36953657e-002 1.31305689e-002 1.82961556e-003 1.52957567e-004
      1.46688242e-002 3.71260978e-002 1.74681351e-001 9.38125074e-001
      2.62870789e-002 6.31006658e-001 9.85860109e-001 2.50000000e-001</_>
    <_>
      2.05934852e-001 1.36342764e-001 1.78775117e-002 4.66132257e-003
      1.46818180e-002 3.55633125e-002 1.74353391e-001 6.38317168e-001
      2.54940063e-001 3.54855597e-001 7.11240470e-001 1.</_>
    <_>
      1.94024459e-001 1.35401130e-001 1.07445347e-003 1.15346536e-002
      1.47205172e-002 4.11050245e-002 1.74680308e-001 6.63705349e-001
      3.04960370e-001 3.09749365e-001 7.45320320e-001 2.50000000e-001</_>
    <_>
      2.71078318e-001 2.15428725e-001 7.28836209e-002 3.59164216e-002
      1.64316930e-002 4.87306193e-002 1.66364968e-001 8.39455485e-001
      2.34435782e-001 1.86573863e-001 8.39393377e-001 6.25000000e-001</_>
    <_>
      2.96555668e-001 2.37181351e-001 3.82190570e-002 7.75568001e-003
      1.46481153e-002 3.69664133e-002 1.75724253e-001 6.61233962e-001
      1.86844677e-001 3.00228834e-001 7.59709835e-001 1.</_>
    <_>
      1.59893006e-001 1.27122298e-001 2.74930708e-003 4.96797822e-003
      1.46908062e-002 3.90706435e-002 1.74639896e-001 8.65548670e-001
      1.31330952e-001 4.54674065e-001 9.17826891e-001 2.50000000e-001</_>
    <_>
      3.05323064e-001 2.50062764e-001 1.64910778e-002 6.81445375e-003
      1.46925412e-002 3.52285467e-002 1.74132258e-001 7.31212199e-001
      1.68869600e-001 3.79775852e-001 7.92860329e-001 1.</_></support_vectors>
  <decision_functions>
    <_>
      <sv_count>10</sv_count>
      <rho>-3.2664582316946622e+000</rho>
      <alpha>
        4.0252159872845951e+001 4.9634951529316979e+001
        1.2117896513998143e+002 8.1267429387649997e+001
        2.5577888255052112e+001 4.9443565379279711e+001
        2.0489424709985919e+001 -3.6581781126921570e+001
        -2.0894820513868339e+002 -1.4231439800850708e+002</alpha>
      <index>
        0 1 2 3 4 5 6 7 8 9</index></_></decision_functions></my_svm>
</opencv_storage>
